{"learner":{"attributes":{"best_iteration":"149","best_ntree_limit":"150","scikit_learn":"{\"n_estimators\": 150, \"objective\": \"reg:squarederror\", \"max_depth\": null, \"max_leaves\": null, \"max_bin\": null, \"grow_policy\": null, \"learning_rate\": null, \"verbosity\": null, \"booster\": null, \"tree_method\": null, \"gamma\": null, \"min_child_weight\": null, \"max_delta_step\": null, \"subsample\": null, \"sampling_method\": null, \"colsample_bytree\": null, \"colsample_bylevel\": null, \"colsample_bynode\": null, \"reg_alpha\": null, \"reg_lambda\": null, \"scale_pos_weight\": null, \"base_score\": null, \"missing\": NaN, \"num_parallel_tree\": null, \"random_state\": null, \"n_jobs\": null, \"monotone_constraints\": null, \"interaction_constraints\": null, \"importance_type\": null, \"gpu_id\": null, \"validate_parameters\": null, \"predictor\": null, \"enable_categorical\": false, \"max_cat_to_onehot\": null, \"eval_metric\": null, \"early_stopping_rounds\": null, \"callbacks\": null, \"_estimator_type\": \"regressor\"}"},"feature_names":["Type","Year","Origin","Options","Engine_Size","Fuel_Type","Gear_Type","Mileage","Color_Another Color","Color_Black","Color_Blue","Color_Bronze","Color_Brown","Color_Golden","Color_Green","Color_Grey","Color_Navy","Color_Oily","Color_Orange","Color_Red","Color_Silver","Color_White","Color_Yellow","Make_Aston Martin","Make_Audi","Make_BMW","Make_BYD","Make_Bentley","Make_Cadillac","Make_Changan","Make_Chery","Make_Chevrolet","Make_Chrysler","Make_Classic","Make_Daihatsu","Make_Dodge","Make_FAW","Make_Ferrari","Make_Fiat","Make_Ford","Make_Foton","Make_GAC","Make_GMC","Make_Geely","Make_Genesis","Make_Great Wall","Make_HAVAL","Make_Honda","Make_Hummer","Make_Hyundai","Make_INFINITI","Make_Isuzu","Make_Iveco","Make_Jaguar","Make_Jeep","Make_Kia","Make_Land Rover","Make_Lexus","Make_Lifan","Make_Lincoln","Make_MG","Make_MINI","Make_Maserati","Make_Mazda","Make_Mercedes","Make_Mercury","Make_Mitsubishi","Make_Nissan","Make_Other","Make_Peugeot","Make_Porsche","Make_Renault","Make_Rolls-Royce","Make_Subaru","Make_Suzuki","Make_Toyota","Make_Victory Auto","Make_Volkswagen","Make_Zhengzhou","Make_Škoda","Region_Abha","Region_Al-Ahsa","Region_Al-Baha","Region_Al-Jouf","Region_Al-Medina","Region_Al-Namas","Region_Arar","Region_Aseer","Region_Besha","Region_Dammam","Region_Hafar Al-Batin","Region_Hail","Region_Jazan","Region_Jeddah","Region_Jubail","Region_Khobar","Region_Makkah","Region_Najran","Region_Qassim","Region_Qurayyat","Region_Riyadh","Region_Sabya","Region_Sakaka","Region_Tabouk","Region_Taef","Region_Wadi Dawasir","Region_Yanbu"],"feature_types":["float","float","float","float","float","float","float","float","float","float","float","float","float","float","float","float","float","float","float","float","float","float","float","float","float","float","float","float","float","float","float","float","float","float","float","float","float","float","float","float","float","float","float","float","float","float","float","float","float","float","float","float","float","float","float","float","float","float","float","float","float","float","float","float","float","float","float","float","float","float","float","float","float","float","float","float","float","float","float","float","float","float","float","float","float","float","float","float","float","float","float","float","float","float","float","float","float","float","float","float","float","float","float","float","float","float","float"],"gradient_booster":{"model":{"gbtree_model_param":{"num_parallel_tree":"1","num_trees":"150","size_leaf_vector":"0"},"tree_info":[0,0,0,0,0,0,0,0,0,0,0,0,0,0,0,0,0,0,0,0,0,0,0,0,0,0,0,0,0,0,0,0,0,0,0,0,0,0,0,0,0,0,0,0,0,0,0,0,0,0,0,0,0,0,0,0,0,0,0,0,0,0,0,0,0,0,0,0,0,0,0,0,0,0,0,0,0,0,0,0,0,0,0,0,0,0,0,0,0,0,0,0,0,0,0,0,0,0,0,0,0,0,0,0,0,0,0,0,0,0,0,0,0,0,0,0,0,0,0,0,0,0,0,0,0,0,0,0,0,0,0,0,0,0,0,0,0,0,0,0,0,0,0,0,0,0,0,0,0,0],"trees":[{"base_weights":[5.9149926E4,3.3784457E4,6.642038E4,2.8302625E4,4.569481E4,5.1017434E4,8.453617E4,2.2999502E4,3.3461266E4,3.3722477E4,5.897335E4,4.9212066E4,1.1348864E5,7.6173625E4,9.6791805E4,1.8577023E4,2.6128074E4,3.6480996E4,1.8358E4,3.1489014E4,8.1332914E4,5.165284E4,8.626875E4,3.999069E4,5.8027785E4,1.1474395E5,2.849975E4,8.455736E4,6.1459203E4,7.482582E4,1.07520086E5,2.5216912E4,1.697614E4,2.4669146E4,5.3499562E4,3.2528943E4,4.927537E4,8.499536E3,2.1349512E4,2.7025016E4,4.0314727E4,4.7705504E4,1.08832914E5,3.7232812E4,5.6826285E4,5.083495E4,6.953478E4,8.105553E4,1.2002125E5,4.985926E4,6.5344516E4,5.95919E4,8.822678E4,1.08291445E5,2.80096E4,3.27662E4,9.832889E3,1.1658613E4,1.8139041E4,2.5888018E4,1.4904286E4,2.893101E4,4.2005277E4,2.3856715E4,5.1749508E4,9.726818E3,2.999625E3,2.166618E4,4.49975E3,2.0743414E4,3.0999508E4,3.547249E4,5.419955E4,5.2081938E4,3.3943965E4,4.3110383E4,3.3785156E4,5.850335E4,2.3791857E4,4.341115E4,5.5731066E4,7.807072E4,5.4218203E4,5.3051023E4,8.342692E4,5.0512164E4,2.4499625E4,6.4049996E4,8.341621E4,6.144463E4,4.0363184E4,1.0214358E5,6.604829E4,8.8098984E4,1.123063E5,3.5011875E4,2.5E-1],"categories":[],"categories_nodes":[],"categories_segments":[],"categories_sizes":[],"default_left":[1,1,1,1,1,1,1,1,1,1,1,1,1,1,1,1,1,1,1,1,0,1,0,1,1,0,0,1,1,1,1,1,1,1,0,1,1,1,1,1,1,1,0,1,1,1,1,1,0,1,1,1,1,1,1,0,0,0,0,0,0,0,0,0,0,0,0,0,0,0,0,0,0,0,0,0,0,0,0,0,0,0,0,0,0,0,0,0,0,0,0,0,0,0,0,0,0],"id":0,"left_children":[1,3,5,7,9,11,13,15,17,19,21,23,25,27,29,31,33,35,37,39,-1,41,-1,43,45,-1,-1,47,49,51,53,55,57,59,-1,61,63,65,67,69,71,73,-1,75,77,79,81,83,-1,85,87,89,91,93,95,-1,-1,-1,-1,-1,-1,-1,-1,-1,-1,-1,-1,-1,-1,-1,-1,-1,-1,-1,-1,-1,-1,-1,-1,-1,-1,-1,-1,-1,-1,-1,-1,-1,-1,-1,-1,-1,-1,-1,-1,-1,-1],"loss_changes":[7.27869E11,5.6423547E10,8.5400433E11,1.5863415E10,4.2047373E10,1.8219952E11,1.3734039E11,3.7069455E9,1.3286277E10,1.3176652E10,2.152009E10,1.29374355E11,1.637417E9,9.892004E10,1.2604408E11,9.4314496E8,5.6684954E9,1.1240407E10,1.3816013E9,4.5444137E9,0E0,1.8507497E10,0E0,3.479647E10,6.4831357E10,0E0,0E0,5.6712233E10,1.0713563E10,3.3530774E10,2.0272906E10,2.3489976E9,4.501852E8,1.6137093E9,0E0,5.5015014E9,2.4130028E9,6.532243E7,1.1593728E8,1.803649E9,1.1701535E9,4.2547773E9,0E0,1.24445E10,4.702208E9,1.61908E10,3.695064E10,2.8114944E10,0E0,1.2017664E8,1.441792E7,7.9744205E8,2.3810277E10,2.0587741E10,9.806372E8,0E0,0E0,0E0,0E0,0E0,0E0,0E0,0E0,0E0,0E0,0E0,0E0,0E0,0E0,0E0,0E0,0E0,0E0,0E0,0E0,0E0,0E0,0E0,0E0,0E0,0E0,0E0,0E0,0E0,0E0,0E0,0E0,0E0,0E0,0E0,0E0,0E0,0E0,0E0,0E0,0E0,0E0],"parents":[2147483647,0,0,1,1,2,2,3,3,4,4,5,5,6,6,7,7,8,8,9,9,10,10,11,11,12,12,13,13,14,14,15,15,16,16,17,17,18,18,19,19,21,21,23,23,24,24,27,27,28,28,29,29,30,30,31,31,32,32,33,33,35,35,36,36,37,37,38,38,39,39,40,40,41,41,43,43,44,44,45,45,46,46,47,47,49,49,50,50,51,51,52,52,53,53,54,54],"right_children":[2,4,6,8,10,12,14,16,18,20,22,24,26,28,30,32,34,36,38,40,-1,42,-1,44,46,-1,-1,48,50,52,54,56,58,60,-1,62,64,66,68,70,72,74,-1,76,78,80,82,84,-1,86,88,90,92,94,96,-1,-1,-1,-1,-1,-1,-1,-1,-1,-1,-1,-1,-1,-1,-1,-1,-1,-1,-1,-1,-1,-1,-1,-1,-1,-1,-1,-1,-1,-1,-1,-1,-1,-1,-1,-1,-1,-1,-1,-1,-1,-1],"split_conditions":[2.0125E3,2.0105E3,2.65E0,3.85E0,3.75E0,5E-1,3.95E0,2.0065E3,5E-1,5E-1,5E-1,1.8499999E0,2.285E5,1.31204E5,2.0145E3,1.9925E3,5E-1,2.0085E3,2.0035E3,1.5E0,2.4399875E4,5E-1,2.5880627E4,1.5E0,2.0175E3,3.4423188E4,8.549926E3,5E-1,2.0145E3,1.38E2,5E-1,5E-1,1.55E0,5E-1,1.6049869E4,5E-1,8.6E1,3.936245E5,5E-1,2.25E0,5E-1,5E-1,3.2649875E4,6.6498E4,3.37E2,2.0155E3,5E-1,5.4E2,3.6006375E4,5E-1,5E-1,5E-1,2.8E2,1.38E2,3.175E2,9.82986E3,2.9498667E3,3.4975842E3,5.4417124E3,7.766406E3,4.471286E3,8.679304E3,1.2601584E4,7.1570146E3,1.5524853E4,2.9180457E3,8.998875E2,6.499854E3,1.349925E3,6.2230244E3,9.299853E3,1.0641747E4,1.6259866E4,1.5624582E4,1.0183189E4,1.2933115E4,1.0135547E4,1.7551006E4,7.1375576E3,1.3023345E4,1.671932E4,2.3421217E4,1.6265462E4,1.5915308E4,2.5028078E4,1.5153649E4,7.3498877E3,1.9215E4,2.5024865E4,1.8433389E4,1.2108955E4,3.0643074E4,1.9814488E4,2.6429697E4,3.369189E4,1.05035625E4,7.5E-2],"split_indices":[1,1,4,4,4,64,4,1,39,64,75,4,7,7,1,1,64,1,1,3,0,57,0,3,1,0,0,57,1,0,94,21,4,31,0,75,0,7,14,4,75,39,0,7,0,1,49,7,0,55,57,35,0,0,0,0,0,0,0,0,0,0,0,0,0,0,0,0,0,0,0,0,0,0,0,0,0,0,0,0,0,0,0,0,0,0,0,0,0,0,0,0,0,0,0,0,0],"split_type":[0,0,0,0,0,0,0,0,0,0,0,0,0,0,0,0,0,0,0,0,0,0,0,0,0,0,0,0,0,0,0,0,0,0,0,0,0,0,0,0,0,0,0,0,0,0,0,0,0,0,0,0,0,0,0,0,0,0,0,0,0,0,0,0,0,0,0,0,0,0,0,0,0,0,0,0,0,0,0,0,0,0,0,0,0,0,0,0,0,0,0,0,0,0,0,0,0],"sum_hessian":[3.958E3,8.83E2,3.075E3,6.07E2,2.76E2,1.664E3,1.411E3,3.02E2,3.05E2,1.47E2,1.29E2,1.619E3,4.5E1,8.43E2,5.68E2,1.28E2,1.74E2,2.53E2,5.2E1,1.42E2,5E0,1.04E2,2.5E1,7.94E2,8.25E2,4.4E1,1E0,5.34E2,3.09E2,1.89E2,3.79E2,2.2E1,1.06E2,1.67E2,7E0,1.96E2,5.7E1,1.3E1,3.9E1,9.7E1,4.5E1,9.9E1,5E0,6.85E2,1.09E2,5.11E2,3.14E2,4.89E2,4.5E1,8.1E1,2.28E2,9.1E1,9.8E1,3.75E2,4E0,1.4E1,8E0,2.1E1,8.5E1,1.47E2,2E1,1.45E2,5.1E1,6E0,5.1E1,1E1,3E0,3.8E1,1E0,4E1,5.7E1,3.6E1,9E0,7.3E1,2.6E1,2.49E2,4.36E2,1.03E2,6E0,2.07E2,3.04E2,1.99E2,1.15E2,4E1,4.49E2,7.8E1,3E0,2.17E2,1.1E1,8.1E1,1E1,5.8E1,4E1,6.6E1,3.09E2,3E0,1E0],"tree_param":{"num_deleted":"0","num_feature":"107","num_nodes":"97","size_leaf_vector":"0"}},{"base_weights":[4.1584863E4,2.1737857E4,4.6117918E4,1.739267E4,2.7714213E4,3.544553E4,5.8149418E4,1.4037542E4,2.107531E4,2.4302758E4,4.531983E4,3.4182914E4,8.037625E4,5.2466297E4,6.955849E4,9.831522E3,1.5877006E4,1.3748459E4,2.4426738E4,1.6735309E4,2.7495578E4,1.9764799E4,5.219721E4,3.0708025E4,4.6262035E4,3.1175295E4,8.1904125E4,4.629098E4,6.0546664E4,6.1425234E4,8.307498E4,3.1116547E4,9.093473E3,1.2562646E4,1.9072799E4,2.4085657E3,1.573043E4,2.1534201E4,4.1409777E4,1.5597899E4,3.4446594E4,3.4531266E4,2.3926215E4,2.3716166E4,1.1860739E4,2.4063035E4,5.777386E4,2.5963781E4,3.623656E4,5.225028E4,3.1251201E4,8.2865234E4,2.0288156E4,3.931405E4,5.3600938E4,5.4404406E4,6.828599E4,5.851047E4,9.1685695E4,8.3696266E4,-1.5621195E4,7.0266357E3,1.2201404E4,1.5144995E4,9.459537E3,1.7841613E4,3.3479785E4,-1.568056E3,3.4664878E3,2.4685545E4,1.1852081E4,1.2915022E4,2.6179781E4,4.4406656E4,1.06241875E4,1.3430041E4,2.0407088E4,2.4480236E4,4.3431254E4,2.111086E4,3.6019645E4,2.763146E4,8.905169E3,6.0698516E4,1.0244224E4,2.5119238E4,4.9767332E4,3.5269465E4,8.036273E4,3.028604E4,5.4842918E4,6.3803824E4,2.8363357E4,3.3715297E4,4.6474297E4,4.3447156E4,6.4656332E4,6.034496E4,3.779199E4,5.2659266E4,7.8559195E4,7.099977E4,5.5028273E4,8.432419E4,-1.5606695E4],"categories":[],"categories_nodes":[],"categories_segments":[],"categories_sizes":[],"default_left":[1,1,1,1,1,1,1,1,1,1,1,1,1,1,1,1,1,1,1,1,1,1,1,1,1,0,1,1,1,1,1,0,1,1,1,1,1,1,1,1,0,1,1,0,0,1,1,1,1,1,1,0,0,1,1,1,1,1,0,1,0,0,0,0,0,0,0,0,0,0,0,0,0,0,0,0,0,0,0,0,0,0,0,0,0,0,0,0,0,0,0,0,0,0,0,0,0,0,0,0,0,0,0,0,0],"id":1,"left_children":[1,3,5,7,9,11,13,15,17,19,21,23,25,27,29,31,33,35,37,39,41,43,45,47,49,-1,51,53,55,57,59,-1,61,63,65,67,69,71,73,75,-1,77,79,-1,-1,81,83,85,87,89,91,-1,-1,93,95,97,99,101,-1,103,-1,-1,-1,-1,-1,-1,-1,-1,-1,-1,-1,-1,-1,-1,-1,-1,-1,-1,-1,-1,-1,-1,-1,-1,-1,-1,-1,-1,-1,-1,-1,-1,-1,-1,-1,-1,-1,-1,-1,-1,-1,-1,-1,-1,-1],"loss_changes":[3.5517943E11,1.8682642E10,4.116594E11,5.017125E9,1.7457349E10,9.4261215E10,9.445206E10,1.6078971E9,4.648919E9,5.846008E9,7.580164E9,6.846546E10,9.045934E8,4.779462E10,4.986346E10,8.481203E8,1.4233436E9,1.4454835E9,5.887394E9,1.0743009E9,3.7443502E9,9.349069E7,4.571783E9,3.3051509E10,3.1625904E10,0E0,9.244836E8,2.742236E10,1.7011048E10,2.250729E10,1.2651463E10,0E0,3.7033984E8,4.9779917E8,7.862047E8,5.171217E7,1.6523653E9,4.466819E9,1.2811694E9,5.2870554E8,0E0,4.2145792E9,3.461464E9,0E0,0E0,1.8665472E8,3.6874322E9,1.2842205E10,2.2599434E10,1.3315604E10,8.3430523E9,0E0,0E0,1.0459644E10,2.8622062E10,2.2193832E10,2.6204504E10,8.748663E9,0E0,1.2789219E10,0E0,0E0,0E0,0E0,0E0,0E0,0E0,0E0,0E0,0E0,0E0,0E0,0E0,0E0,0E0,0E0,0E0,0E0,0E0,0E0,0E0,0E0,0E0,0E0,0E0,0E0,0E0,0E0,0E0,0E0,0E0,0E0,0E0,0E0,0E0,0E0,0E0,0E0,0E0,0E0,0E0,0E0,0E0,0E0,0E0],"parents":[2147483647,0,0,1,1,2,2,3,3,4,4,5,5,6,6,7,7,8,8,9,9,10,10,11,11,12,12,13,13,14,14,15,15,16,16,17,17,18,18,19,19,20,20,21,21,22,22,23,23,24,24,26,26,27,27,28,28,29,29,30,30,32,32,33,33,34,34,35,35,36,36,37,37,38,38,39,39,41,41,42,42,45,45,46,46,47,47,48,48,49,49,50,50,53,53,54,54,55,55,56,56,57,57,59,59],"right_children":[2,4,6,8,10,12,14,16,18,20,22,24,26,28,30,32,34,36,38,40,42,44,46,48,50,-1,52,54,56,58,60,-1,62,64,66,68,70,72,74,76,-1,78,80,-1,-1,82,84,86,88,90,92,-1,-1,94,96,98,100,102,-1,104,-1,-1,-1,-1,-1,-1,-1,-1,-1,-1,-1,-1,-1,-1,-1,-1,-1,-1,-1,-1,-1,-1,-1,-1,-1,-1,-1,-1,-1,-1,-1,-1,-1,-1,-1,-1,-1,-1,-1,-1,-1,-1,-1,-1,-1],"split_conditions":[2.0115E3,1.5E0,2.65E0,3.9E0,2.0105E3,5E-1,2.0165E3,1.6500001E0,2.0055E3,1.365E2,1.5E0,1.5E0,2.0145E3,1.5E0,3.65E0,1.74E2,2.0085E3,1.855E2,5E-1,5E-1,2.035E2,2.535E2,2.75E0,1.95E0,1.35494E5,9.352589E3,5E-1,3.85E0,3.9E0,5E-1,5E-1,9.334965E3,5E-1,2.441355E5,5E-1,5E-1,2.005E2,2.42E2,5E-1,2.0085E3,1.0333979E4,1.975E2,5E-1,7.11485E3,3.558222E3,5E-1,5E-1,5E-1,5E-1,4.17E2,1.05E0,2.4859572E4,6.0864473E3,2.0155E3,2.0145E3,1.7685E5,1.835E2,3.3007E4,2.7505709E4,5.375E5,-4.686359E3,2.1079907E3,3.6604214E3,4.5434985E3,2.8378613E3,5.3524844E3,1.0043936E4,-4.7041684E2,1.0399464E3,7.4056636E3,3.5556245E3,3.8745068E3,7.8539346E3,1.3321997E4,3.1872563E3,4.0290125E3,6.1221265E3,7.3440713E3,1.3029377E4,6.3332583E3,1.0805894E4,8.289438E3,2.6715508E3,1.8209555E4,3.0732673E3,7.535772E3,1.49302E4,1.058084E4,2.4108818E4,9.0858125E3,1.6452877E4,1.9141148E4,8.509008E3,1.011459E4,1.394229E4,1.3034147E4,1.93969E4,1.8103488E4,1.1337597E4,1.579778E4,2.356776E4,2.1299934E4,1.6508482E4,2.5297258E4,-4.682009E3],"split_indices":[1,3,4,4,1,64,1,4,1,0,2,3,1,3,4,7,1,0,75,70,0,0,4,4,7,0,92,4,4,57,104,0,75,7,104,6,0,0,96,1,0,0,64,0,0,100,35,47,25,7,4,0,0,1,1,7,0,7,0,7,0,0,0,0,0,0,0,0,0,0,0,0,0,0,0,0,0,0,0,0,0,0,0,0,0,0,0,0,0,0,0,0,0,0,0,0,0,0,0,0,0,0,0,0,0],"split_type":[0,0,0,0,0,0,0,0,0,0,0,0,0,0,0,0,0,0,0,0,0,0,0,0,0,0,0,0,0,0,0,0,0,0,0,0,0,0,0,0,0,0,0,0,0,0,0,0,0,0,0,0,0,0,0,0,0,0,0,0,0,0,0,0,0,0,0,0,0,0,0,0,0,0,0,0,0,0,0,0,0,0,0,0,0,0,0,0,0,0,0,0,0,0,0,0,0,0,0,0,0,0,0,0,0],"sum_hessian":[3.958E3,7.37E2,3.221E3,4.29E2,3.08E2,1.709E3,1.512E3,2.27E2,2.02E2,2.6E2,4.8E1,1.664E3,4.5E1,1.013E3,4.99E2,7.1E1,1.56E2,6.5E1,1.37E2,7.9E1,1.81E2,1.1E1,3.7E1,1.295E3,3.69E2,2E0,4.3E1,5.78E2,4.35E2,3.15E2,1.84E2,1E0,7E1,7.9E1,7.7E1,1E1,5.5E1,1.19E2,1.8E1,7.6E1,3E0,5.8E1,1.23E2,6E0,5E0,7E0,3E1,7E2,5.95E2,2.62E2,1.07E2,4.2E1,1E0,2.99E2,2.79E2,2.47E2,1.88E2,2.9E2,2.5E1,1.83E2,1E0,4.4E1,2.6E1,4.1E1,3.8E1,7.3E1,4E0,2E0,8E0,1.5E1,4E1,4.3E1,7.6E1,1.6E1,2E0,5.5E1,2.1E1,2.9E1,2.9E1,1.02E2,2.1E1,5E0,2E0,2.8E1,2E0,6.78E2,2.2E1,5.84E2,1.1E1,2.9E1,2.33E2,7E0,1E2,1.71E2,1.28E2,1.48E2,1.31E2,1.8E2,6.7E1,7.7E1,1.11E2,5.9E1,2.31E2,1.82E2,1E0],"tree_param":{"num_deleted":"0","num_feature":"107","num_nodes":"105","size_leaf_vector":"0"}},{"base_weights":[2.9244727E4,1.6539062E4,3.2886652E4,1.2319161E4,2.0472832E4,2.5244277E4,4.1875086E4,1.112175E4,1.873641E4,1.9404152E4,5.8396938E4,1.9345842E4,3.0611988E4,3.9001164E4,5.1482457E4,1.0474797E4,2.2317758E4,8.707236E3,2.290763E4,1.4168053E4,2.5520486E4,2.0979457E4,6.853838E4,2.389733E4,1.615448E4,3.502418E4,2.062407E4,3.7564938E4,6.184044E4,4.5645844E4,6.2166055E4,9.682639E3,1.6292738E4,7.243839E3,2.5854547E4,2.6279834E3,1.5131615E4,6.430755E3,2.476016E4,1.3126209E4,4.300118E4,2.1519768E4,4.1894812E4,2.2772223E4,4.1884016E4,1.7643174E4,1.0308301E4,3.0186781E4,4.496589E4,2.3111098E4,1.4004235E4,3.2469457E4,4.3972285E4,6.227543E4,1.7435574E4,-1.0277807E4,4.6497754E4,6.4019523E4,1.9060455E4,7.816011E3,1.1768729E4,4.3163477E4,1.3742608E4,-2.0119375E3,1.0060768E4,1.0174837E4,2.8926572E4,3.46131E3,-1.0257666E3,2.6580264E3,2.009772E4,3.1236538E3,1.1483131E4,3.1672438E4,1.9554135E4,1.1652055E4,1.752529E4,1.1798573E4,4.5773184E4,1.5051596E4,2.5854299E4,2.40433E4,4.7221426E4,1.8556457E4,2.7998482E4,5.619634E4,2.1327656E4,1.5933675E4,2.6682273E4,9.505804E3,3.2552121E4,2.9161133E4,7.241704E4,5.93984E4,3.8111457E4,1.8523764E4,2.82062E4,1.7685965E4,8.389172E3,3.1535422E4,6.7778445E4,3.4106883E4,5.077952E4,2.5922725E4,6.305514E4,-2.3298494E4,1.4392129E4,5.8221434E4,4.203775E4,6.624235E4,2.3119158E4,5.320441E4,-3.28183E4],"categories":[],"categories_nodes":[],"categories_segments":[],"categories_sizes":[],"default_left":[1,1,1,1,1,1,1,1,1,1,1,1,1,1,1,1,1,1,1,1,1,0,0,1,1,1,1,1,1,1,1,1,1,1,1,1,1,1,1,1,1,1,1,1,1,1,1,1,1,1,1,1,1,1,0,1,1,1,1,0,0,0,0,0,0,0,0,0,0,0,0,0,0,0,0,0,0,0,0,0,0,0,0,0,0,0,0,0,0,0,0,0,0,0,0,0,0,0,0,0,0,0,0,0,0,0,0,0,0,0,0,0,0],"id":2,"left_children":[1,3,5,7,9,11,13,15,17,19,21,23,25,27,29,31,33,35,37,39,41,-1,-1,43,45,47,49,51,53,55,57,59,61,63,65,67,69,71,73,75,77,79,81,83,85,87,89,91,93,95,97,99,101,103,-1,105,107,109,111,-1,-1,-1,-1,-1,-1,-1,-1,-1,-1,-1,-1,-1,-1,-1,-1,-1,-1,-1,-1,-1,-1,-1,-1,-1,-1,-1,-1,-1,-1,-1,-1,-1,-1,-1,-1,-1,-1,-1,-1,-1,-1,-1,-1,-1,-1,-1,-1,-1,-1,-1,-1,-1,-1],"loss_changes":[1.8265119E11,1.4422295E10,2.1024237E11,3.088089E9,1.7347936E10,5.2123533E10,3.6978557E10,2.4027873E9,2.561575E9,1.388988E10,3.1157084E9,1.1176215E10,3.7617336E10,3.3464254E10,1.7241014E10,1.4368645E9,8.2566554E8,7.8039834E8,1.2448727E9,6.7051356E9,1.2462285E10,0E0,0E0,5.6434524E9,3.917316E9,2.7594064E10,4.105093E9,3.216756E10,1.31072E8,1.0577969E10,7.648084E9,1.1034583E9,2.1477765E9,1.5060595E8,4.2820403E8,4.0087704E7,5.6603136E8,6.438299E7,8.560763E8,1.3197517E9,1.5189197E8,4.2649108E9,2.5730785E9,6.2885396E9,4.097233E9,5.354021E9,1.4399263E9,1.5560081E10,1.7026941E10,4.01186E9,1.4227896E9,1.6891904E10,2.8689826E10,1.2281446E8,0E0,1.620193E9,8.4806205E9,8.1054925E9,1.2374154E10,0E0,0E0,0E0,0E0,0E0,0E0,0E0,0E0,0E0,0E0,0E0,0E0,0E0,0E0,0E0,0E0,0E0,0E0,0E0,0E0,0E0,0E0,0E0,0E0,0E0,0E0,0E0,0E0,0E0,0E0,0E0,0E0,0E0,0E0,0E0,0E0,0E0,0E0,0E0,0E0,0E0,0E0,0E0,0E0,0E0,0E0,0E0,0E0,0E0,0E0,0E0,0E0,0E0,0E0],"parents":[2147483647,0,0,1,1,2,2,3,3,4,4,5,5,6,6,7,7,8,8,9,9,10,10,11,11,12,12,13,13,14,14,15,15,16,16,17,17,18,18,19,19,20,20,23,23,24,24,25,25,26,26,27,27,28,28,29,29,30,30,31,31,32,32,33,33,34,34,35,35,36,36,37,37,38,38,39,39,40,40,41,41,42,42,43,43,44,44,45,45,46,46,47,47,48,48,49,49,50,50,51,51,52,52,53,53,55,55,56,56,57,57,58,58],"right_children":[2,4,6,8,10,12,14,16,18,20,22,24,26,28,30,32,34,36,38,40,42,-1,-1,44,46,48,50,52,54,56,58,60,62,64,66,68,70,72,74,76,78,80,82,84,86,88,90,92,94,96,98,100,102,104,-1,106,108,110,112,-1,-1,-1,-1,-1,-1,-1,-1,-1,-1,-1,-1,-1,-1,-1,-1,-1,-1,-1,-1,-1,-1,-1,-1,-1,-1,-1,-1,-1,-1,-1,-1,-1,-1,-1,-1,-1,-1,-1,-1,-1,-1,-1,-1,-1,-1,-1,-1,-1,-1,-1,-1,-1,-1],"split_conditions":[2.0125E3,2.0085E3,2.65E0,5E-1,5E-1,1.8499999E0,2.0175E3,5E-1,1.84E2,3.75E0,1.9E2,7.095E4,1.28487E5,5E-1,3.9E0,5.55E0,2.0035E3,2.0065E3,6.885E2,5E-1,5E-1,6.2938374E3,2.0561516E4,5E-1,2.955E2,1.5E0,5E-1,3.85E0,5E-1,4.485E2,5E-1,2.0055E3,1.9925E3,1.9985E3,1.53E2,5E-1,5.1E1,2.0065E3,2.025E5,5E-1,2.415E2,2.375E2,1.74E2,1.55E0,5.7E1,5E-1,1.6500001E0,5E-1,7.15E1,2.0155E3,1.97407E5,5E-1,1.87E2,2.83E2,5.2306724E3,1.5E0,3.315E4,2.0205E3,1.1E5,2.3448035E3,3.5306187E3,1.2949044E4,4.1227827E3,-6.035813E2,3.0182305E3,3.0524512E3,8.677972E3,1.0383931E3,-3.0772998E2,7.9740796E2,6.0293164E3,9.370962E2,3.4449395E3,9.501731E3,5.8662407E3,3.4956165E3,5.257587E3,3.539572E3,1.3731956E4,4.515479E3,7.75629E3,7.2129907E3,1.4166429E4,5.5669375E3,8.399545E3,1.6858902E4,6.3982974E3,4.7801025E3,8.004682E3,2.8517412E3,9.765637E3,8.74834E3,2.1725113E4,1.781952E4,1.14334375E4,5.5571294E3,8.46186E3,5.3057896E3,2.5167517E3,9.460627E3,2.0333535E4,1.0232065E4,1.5233856E4,7.776818E3,1.8916543E4,-6.9895483E3,4.3176387E3,1.7466432E4,1.2611325E4,1.9872707E4,6.9357476E3,1.5961323E4,-9.84549E3],"split_indices":[1,1,4,89,57,4,1,57,0,4,0,7,7,57,4,4,1,1,7,64,75,0,0,47,0,3,49,4,104,7,35,1,1,1,0,49,0,1,7,75,0,0,0,4,0,75,4,25,0,1,7,64,0,7,0,3,7,1,7,0,0,0,0,0,0,0,0,0,0,0,0,0,0,0,0,0,0,0,0,0,0,0,0,0,0,0,0,0,0,0,0,0,0,0,0,0,0,0,0,0,0,0,0,0,0,0,0,0,0,0,0,0,0],"split_type":[0,0,0,0,0,0,0,0,0,0,0,0,0,0,0,0,0,0,0,0,0,0,0,0,0,0,0,0,0,0,0,0,0,0,0,0,0,0,0,0,0,0,0,0,0,0,0,0,0,0,0,0,0,0,0,0,0,0,0,0,0,0,0,0,0,0,0,0,0,0,0,0,0,0,0,0,0,0,0,0,0,0,0,0,0,0,0,0,0,0,0,0,0,0,0,0,0,0,0,0,0,0,0,0,0,0,0,0,0,0,0,0,0],"sum_hessian":[3.958E3,8.83E2,3.075E3,4.28E2,4.55E2,1.664E3,1.411E3,3.63E2,6.5E1,4.44E2,1.1E1,7.95E2,8.69E2,1.09E3,3.21E2,3.45E2,1.8E1,2E1,4.5E1,2.41E2,2.03E2,3E0,8E0,3.25E2,4.7E2,6.01E2,2.68E2,1.028E3,6.2E1,2.11E2,1.1E2,3.06E2,3.9E1,4E0,1.4E1,1.1E1,9E0,5E0,4E1,2.34E2,7E0,1.65E2,3.8E1,3.08E2,1.7E1,3.73E2,9.7E1,4.07E2,1.94E2,1.93E2,7.5E1,5.76E2,4.52E2,6.1E1,1E0,3E0,2.08E2,1.05E2,5E0,1.64E2,1.42E2,2E0,3.7E1,1E0,3E0,3E0,1.1E1,9E0,2E0,3E0,6E0,4E0,1E0,1.5E1,2.5E1,1.78E2,5.6E1,1E0,6E0,6.8E1,9.7E1,1E1,2.8E1,1.73E2,1.35E2,9E0,8E0,3.16E2,5.7E1,9.5E1,2E0,3.99E2,8E0,6E1,1.34E2,1.04E2,8.9E1,4.4E1,3.1E1,5.63E2,1.3E1,1.87E2,2.65E2,2E0,5.9E1,2E0,1E0,5.4E1,1.54E2,9.9E1,6E0,3E0,2E0],"tree_param":{"num_deleted":"0","num_feature":"107","num_nodes":"113","size_leaf_vector":"0"}},{"base_weights":[2.0583113E4,1.3644913E4,2.4249273E4,7.392163E3,1.6267943E4,1.9681908E4,3.4438445E4,7.037309E3,2.666422E4,1.1404637E4,2.0425227E4,1.688923E4,2.8211965E4,3.2880953E4,5.4543656E4,6.553535E3,2.0971977E4,3.065538E4,1.3586309E3,7.5255063E3,1.3604541E4,1.5681535E4,2.7386295E4,1.0405026E4,1.9243162E4,3.0590668E4,1.5418556E4,3.0359158E4,4.2848207E4,5.671582E4,-3.24627E4,3.1737253E3,8.615934E3,1.0171766E4,2.877619E4,1.6777518E4,6.1974673E3,1.18565E4,2.2391E4,1.8342152E4,1.0209519E4,2.1226877E4,3.594887E4,9.719517E3,2.9589078E4,1.6012942E4,2.331089E4,2.043324E4,3.345699E4,2.1978762E4,9.472264E3,3.1285533E4,9.609322E3,5.4652524E3,4.5229367E4,5.8602586E4,-2.258477E4,1.9125784E3,6.0458745E3,2.1439178E4,7.7306274E3,-1.4359502E3,1.234571E4,3.2008057E4,4.692496E3,3.302801E4,3.191519E3,7.251623E3,-2.7548933E3,8.0934243E3,1.5711217E4,1.6364763E4,2.8785818E4,1.6508223E4,2.828077E4,9.563047E3,2.8786352E4,1.8489033E4,4.141785E4,1.6582412E4,4.3178105E4,9.416405E3,4.1741637E4,3.8669305E4,1.7612979E3,1.5265298E4,4.0245137E4,3.100722E4,1.9604504E4,1.6797285E4,3.1987965E4,3.629748E4,2.0815314E4,1.9575979E4,3.948126E4,1.068263E4,-1.8260814E4,3.2583715E4,1.5358282E4,-2.597321E4,1.692686E4,1.3970281E4,-3.5540004E4,4.586493E4,1.1288842E3,5.9937234E4,1.5934503E4],"categories":[],"categories_nodes":[],"categories_segments":[],"categories_sizes":[],"default_left":[1,1,1,1,1,1,1,1,1,1,1,1,1,1,1,1,1,0,0,1,1,1,1,1,1,1,1,1,1,1,0,1,1,1,1,1,1,1,1,1,1,1,1,1,1,1,1,1,1,1,1,1,1,1,1,1,0,0,0,0,0,0,0,0,0,0,0,0,0,0,0,0,0,0,0,0,0,0,0,0,0,0,0,0,0,0,0,0,0,0,0,0,0,0,0,0,0,0,0,0,0,0,0,0,0,0,0],"id":3,"left_children":[1,3,5,7,9,11,13,15,17,19,21,23,25,27,29,31,33,-1,-1,35,37,39,41,43,45,47,49,51,53,55,-1,57,59,61,63,65,67,69,71,73,75,77,79,81,83,85,87,89,91,93,95,97,99,101,103,105,-1,-1,-1,-1,-1,-1,-1,-1,-1,-1,-1,-1,-1,-1,-1,-1,-1,-1,-1,-1,-1,-1,-1,-1,-1,-1,-1,-1,-1,-1,-1,-1,-1,-1,-1,-1,-1,-1,-1,-1,-1,-1,-1,-1,-1,-1,-1,-1,-1,-1,-1],"loss_changes":[1.0037245E11,2.2365716E10,1.198082E11,2.5957356E9,1.9277578E10,4.2164355E10,2.3257481E10,2.5657917E9,6.653409E8,3.7121884E9,1.6708534E10,2.0420592E10,1.2918292E10,1.742504E10,1.2424708E10,2.6841866E9,8.03028E8,0E0,0E0,1.9110943E9,4.0964997E9,4.340564E9,1.0259677E10,4.473012E9,1.263498E10,1.008871E10,2.5614428E9,1.1194204E10,1.2927009E10,9.552724E9,0E0,5.281449E8,2.5702134E9,1.9436954E8,3.946496E8,4.3101747E9,1.3883694E9,3.3396756E9,1.3016146E9,3.324289E9,9.7368986E8,6.088909E9,1.13244E10,3.013845E9,2.9640827E9,9.440625E9,1.1829281E10,2.9917348E9,9.550234E9,6.1492224E8,1.504193E9,1.1326521E10,7.4698097E9,3.9840125E9,3.8442107E9,2.1200568E9,0E0,0E0,0E0,0E0,0E0,0E0,0E0,0E0,0E0,0E0,0E0,0E0,0E0,0E0,0E0,0E0,0E0,0E0,0E0,0E0,0E0,0E0,0E0,0E0,0E0,0E0,0E0,0E0,0E0,0E0,0E0,0E0,0E0,0E0,0E0,0E0,0E0,0E0,0E0,0E0,0E0,0E0,0E0,0E0,0E0,0E0,0E0,0E0,0E0,0E0,0E0],"parents":[2147483647,0,0,1,1,2,2,3,3,4,4,5,5,6,6,7,7,8,8,9,9,10,10,11,11,12,12,13,13,14,14,15,15,16,16,19,19,20,20,21,21,22,22,23,23,24,24,25,25,26,26,27,27,28,28,29,29,31,31,32,32,33,33,34,34,35,35,36,36,37,37,38,38,39,39,40,40,41,41,42,42,43,43,44,44,45,45,46,46,47,47,48,48,49,49,50,50,51,51,52,52,53,53,54,54,55,55],"right_children":[2,4,6,8,10,12,14,16,18,20,22,24,26,28,30,32,34,-1,-1,36,38,40,42,44,46,48,50,52,54,56,-1,58,60,62,64,66,68,70,72,74,76,78,80,82,84,86,88,90,92,94,96,98,100,102,104,106,-1,-1,-1,-1,-1,-1,-1,-1,-1,-1,-1,-1,-1,-1,-1,-1,-1,-1,-1,-1,-1,-1,-1,-1,-1,-1,-1,-1,-1,-1,-1,-1,-1,-1,-1,-1,-1,-1,-1,-1,-1,-1,-1,-1,-1,-1,-1,-1,-1,-1,-1],"split_conditions":[2.0145E3,2.65E0,3.35E0,5E-1,2.0105E3,1.5E0,3.345E2,5E-1,3.34E5,2.0055E3,1.5E0,1.55E0,5E-1,5E-1,2.0205E3,5E-1,1.12E2,9.196614E3,4.0758926E2,1.9925E3,5E-1,2.415E5,5E-1,5E-1,2.0175E3,1.8499999E0,7.861E4,5E-1,3.525E2,5E-1,-9.738811E3,2.1E0,1.05E0,1.055E2,5E-1,2.5E0,5E-1,2.42E2,4.25E0,5E-1,5E-1,5E-1,3.75E0,5E-1,5.7E1,5E-1,3.75E4,5E-1,1.48442E5,5E-1,5E-1,5E-1,2E0,5E-1,5E-1,5E-1,-6.775431E3,5.7377356E2,1.8137625E3,6.4317534E3,2.3191882E3,-4.3078506E2,3.7037131E3,9.602417E3,1.4077489E3,9.908404E3,9.5745575E2,2.175487E3,-8.26468E2,2.4280273E3,4.713365E3,4.909429E3,8.635746E3,4.952467E3,8.484231E3,2.868914E3,8.635906E3,5.54671E3,1.2425356E4,4.9747236E3,1.2953433E4,2.8249216E3,1.2522491E4,1.1600792E4,5.283894E2,4.5795894E3,1.2073541E4,9.302167E3,5.8813516E3,5.0391855E3,9.59639E3,1.0889244E4,6.2445947E3,5.872794E3,1.1844379E4,3.204789E3,-5.4782446E3,9.775115E3,4.607485E3,-7.7919634E3,5.078058E3,4.1910845E3,-1.0662002E4,1.37594795E4,3.3866525E2,1.7981172E4,4.780351E3],"split_indices":[1,4,4,57,1,3,0,5,7,1,3,4,49,75,1,3,0,0,0,1,75,7,21,47,1,4,7,49,7,94,0,4,4,0,18,2,31,0,4,75,104,64,4,24,0,64,7,21,7,96,96,66,2,92,104,19,0,0,0,0,0,0,0,0,0,0,0,0,0,0,0,0,0,0,0,0,0,0,0,0,0,0,0,0,0,0,0,0,0,0,0,0,0,0,0,0,0,0,0,0,0,0,0,0,0,0,0],"split_type":[0,0,0,0,0,0,0,0,0,0,0,0,0,0,0,0,0,0,0,0,0,0,0,0,0,0,0,0,0,0,0,0,0,0,0,0,0,0,0,0,0,0,0,0,0,0,0,0,0,0,0,0,0,0,0,0,0,0,0,0,0,0,0,0,0,0,0,0,0,0,0,0,0,0,0,0,0,0,0,0,0,0,0,0,0,0,0,0,0,0,0,0,0,0,0,0,0,0,0,0,0,0,0,0,0,0,0],"sum_hessian":[3.958E3,1.37E3,2.588E3,4.06E2,9.64E2,1.789E3,7.99E2,4E2,6E0,4.46E2,5.18E2,1.35E3,4.39E2,7.44E2,5.5E1,3.88E2,1.2E1,5E0,1E0,1.63E2,2.83E2,3.1E2,2.08E2,3.61E2,9.89E2,3.69E2,7E1,5.97E2,1.47E2,5.4E1,1E0,1.48E2,2.4E2,6E0,6E0,1.9E1,1.44E2,2.38E2,4.5E1,2.07E2,1.03E2,1.23E2,8.5E1,3.5E2,1.1E1,5.54E2,4.35E2,8.3E1,2.86E2,3.2E1,3.8E1,5.71E2,2.6E1,9E0,1.38E2,5.3E1,1E0,1.04E2,4.4E1,1.4E1,2.26E2,1E0,5E0,5E0,1E0,8E0,1.1E1,1.29E2,1.5E1,1.22E2,1.16E2,2.5E1,2E1,1.77E2,3E1,1.01E2,2E0,1.1E2,1.3E1,2.4E1,6.1E1,3.48E2,2E0,8E0,3E0,5.39E2,1.5E1,1.39E2,2.96E2,6.5E1,1.8E1,2.32E2,5.4E1,3E1,2E0,3.7E1,1E0,5.27E2,4.4E1,4E0,2.2E1,8E0,1E0,1.36E2,2E0,5.1E1,2E0],"tree_param":{"num_deleted":"0","num_feature":"107","num_nodes":"107","size_leaf_vector":"0"}},{"base_weights":[1.4474064E4,8.824327E3,1.6694262E4,8.166535E3,2.5920244E4,1.3547328E4,2.3115271E4,7.8486294E3,4.1365812E4,1.3889628E4,3.6716562E4,1.292031E4,3.569069E4,2.0137805E4,2.7652352E4,6.357969E3,1.2687247E4,8.987735E3,4.3964742E4,3.8132278E3,1.6036238E4,2.4667072E4,5.32136E4,1.2541098E4,4.399715E4,5.0249805E4,2.9004441E4,1.9080332E4,3.476971E4,2.8833852E4,6.8126973E3,5.498638E3,1.8943883E4,8.513626E3,2.3572543E4,1.2513786E4,4.6331887E4,7.9598374E3,-1.6044576E3,1.1548359E3,1.6894148E4,2.5617797E4,6.153826E3,1.2228786E4,4.9661332E4,4.6756805E4,1.0933718E4,2.0073105E4,3.2845812E4,1.5561841E4,2.3547861E4,3.8209766E4,1.4568072E4,2.9136541E4,-3.7948414E4,-1.0845758E4,1.8513729E4,4.7709966E3,1.26965E4,1.1568608E4,3.0165893E4,3.9396792E3,1.218812E4,1.4039711E4,3.5497234E4,2.391204E3,9.548552E3,-2.7978906E3,3.912041E2,1.1214752E4,2.4490684E4,9.559469E3,1.5496641E4,6.3409055E4,2.9705943E4,1.4857793E4,4.9475707E4,2.2385809E4,-4.9960117E3,3.3973508E4,2.8905508E3,1.6886156E4,4.7043735E3,6.3405083E3,2.5053023E4,4.2085062E4,1.5048514E4,1.6091091E4,2.7149805E3,3.2756213E4,2.247491E4,1.1219097E4,-4.12316E4,2.0729072E4,-4.0351992E3],"categories":[],"categories_nodes":[],"categories_segments":[],"categories_sizes":[],"default_left":[1,1,1,1,1,1,1,1,1,1,1,1,1,1,1,1,1,0,1,1,1,1,0,1,1,0,1,1,1,1,1,1,1,1,1,0,0,1,1,0,1,0,0,1,1,1,0,1,1,1,1,1,1,1,0,1,1,0,0,0,0,0,0,0,0,0,0,0,0,0,0,0,0,0,0,0,0,0,0,0,0,0,0,0,0,0,0,0,0,0,0,0,0,0,0],"id":4,"left_children":[1,3,5,7,9,11,13,15,17,19,21,23,25,27,29,31,33,-1,35,37,39,41,-1,43,45,-1,47,49,51,53,55,57,59,61,63,-1,-1,65,67,-1,69,-1,-1,71,73,75,-1,77,79,81,83,85,87,89,-1,91,93,-1,-1,-1,-1,-1,-1,-1,-1,-1,-1,-1,-1,-1,-1,-1,-1,-1,-1,-1,-1,-1,-1,-1,-1,-1,-1,-1,-1,-1,-1,-1,-1,-1,-1,-1,-1,-1,-1],"loss_changes":[4.9512514E10,1.2372091E10,5.709352E10,1.1063362E10,4.815362E9,2.6044006E10,1.2047024E10,7.636959E9,4.463401E8,3.930821E8,2.8617748E9,2.1344158E10,3.6045169E9,8.109703E9,8.839856E9,8.764518E9,1.1202523E10,0E0,9.025331E7,1.25096344E8,1.9752806E8,8.876698E7,0E0,2.0689224E10,1.4961377E9,0E0,6.444073E8,7.9803187E9,2.0146668E9,8.120074E9,4.53986E9,3.9670333E9,3.9548232E9,3.0276526E9,7.345275E9,0E0,0E0,3.708368E6,8.2396115E6,0E0,4.1564314E8,0E0,0E0,1.5753773E10,2.2314926E9,9.995018E8,0E0,9.235236E8,7.463096E8,4.2341745E9,5.8499154E9,2.1491425E9,8.268045E7,7.6068946E9,0E0,6.496714E9,7.330432E8,0E0,0E0,0E0,0E0,0E0,0E0,0E0,0E0,0E0,0E0,0E0,0E0,0E0,0E0,0E0,0E0,0E0,0E0,0E0,0E0,0E0,0E0,0E0,0E0,0E0,0E0,0E0,0E0,0E0,0E0,0E0,0E0,0E0,0E0,0E0,0E0,0E0,0E0],"parents":[2147483647,0,0,1,1,2,2,3,3,4,4,5,5,6,6,7,7,8,8,9,9,10,10,11,11,12,12,13,13,14,14,15,15,16,16,18,18,19,19,20,20,21,21,23,23,24,24,26,26,27,27,28,28,29,29,30,30,31,31,32,32,33,33,34,34,37,37,38,38,40,40,43,43,44,44,45,45,47,47,48,48,49,49,50,50,51,51,52,52,53,53,55,55,56,56],"right_children":[2,4,6,8,10,12,14,16,18,20,22,24,26,28,30,32,34,-1,36,38,40,42,-1,44,46,-1,48,50,52,54,56,58,60,62,64,-1,-1,66,68,-1,70,-1,-1,72,74,76,-1,78,80,82,84,86,88,90,-1,92,94,-1,-1,-1,-1,-1,-1,-1,-1,-1,-1,-1,-1,-1,-1,-1,-1,-1,-1,-1,-1,-1,-1,-1,-1,-1,-1,-1,-1,-1,-1,-1,-1,-1,-1,-1,-1,-1,-1],"split_conditions":[2.0135E3,5E-1,3.35E0,5E-1,2.0085E3,5E-1,2.0165E3,5E-1,7.85E1,2.0035E3,1.975E2,5E-1,7.2E4,3.345E2,5E-1,5E-1,4.3E0,2.6963208E3,2E0,1.1845E3,1.5E0,5E-1,1.5964081E4,5E-1,1.445E5,1.5074942E4,2.0155E3,1.5E0,2.145E5,5E-1,3.8E4,3.35E2,2.0085E3,1.32E2,2.0095E3,3.754136E3,1.3899566E4,1.975E2,2E3,3.464508E2,5E-1,7.6853394E3,1.846148E3,2.05E0,2.75E0,3.095E2,3.2801155E3,4.9E1,5E-1,2.54E5,3.285E2,5E-1,3.235E5,9.35E4,-1.1384524E4,1.25E4,1.695E2,1.4312991E3,3.8089502E3,3.4705828E3,9.049769E3,1.1819038E3,3.6564363E3,4.2119136E3,1.0649171E4,7.1736127E2,2.8645657E3,-8.3936725E2,1.1736124E2,3.3644258E3,7.3472056E3,2.8678408E3,4.648992E3,1.9022717E4,8.911783E3,4.457338E3,1.4842713E4,6.7157427E3,-1.4988036E3,1.0192053E4,8.671653E2,5.065847E3,1.4113121E3,1.9021526E3,7.515907E3,1.262552E4,4.514554E3,4.8273276E3,8.144942E2,9.826864E3,6.742473E3,3.3657292E3,-1.2369481E4,6.218722E3,-1.2105598E3],"split_indices":[1,57,4,70,1,64,1,75,0,1,0,25,7,0,49,64,4,0,2,7,3,8,0,57,7,0,1,3,7,97,7,0,1,0,1,0,0,0,1,0,100,0,0,4,4,0,0,0,92,7,7,93,7,7,0,7,0,0,0,0,0,0,0,0,0,0,0,0,0,0,0,0,0,0,0,0,0,0,0,0,0,0,0,0,0,0,0,0,0,0,0,0,0,0,0],"split_type":[0,0,0,0,0,0,0,0,0,0,0,0,0,0,0,0,0,0,0,0,0,0,0,0,0,0,0,0,0,0,0,0,0,0,0,0,0,0,0,0,0,0,0,0,0,0,0,0,0,0,0,0,0,0,0,0,0,0,0,0,0,0,0,0,0,0,0,0,0,0,0,0,0,0,0,0,0,0,0,0,0,0,0,0,0,0,0,0,0,0,0,0,0,0,0],"sum_hessian":[3.958E3,1.118E3,2.84E3,1.078E3,4E1,1.908E3,9.32E2,1.069E3,9E0,2E1,2E1,1.857E3,5.1E1,5.66E2,3.66E2,8.19E2,2.5E2,1E0,8E0,4E0,1.6E1,1.3E1,7E0,1.836E3,2.1E1,1.4E1,3.7E1,5.3E2,3.6E1,3.46E2,2E1,7.68E2,5.1E1,1.82E2,6.8E1,1E0,7E0,2E0,2E0,1E0,1.5E1,1.2E1,1E0,1.822E3,1.4E1,1.9E1,2E0,1.3E1,2.4E1,2.99E2,2.31E2,3E1,6E0,3.45E2,1E0,8E0,1.2E1,6.99E2,6.9E1,3.2E1,1.9E1,8.2E1,1E2,3.9E1,2.9E1,1E0,1E0,1E0,1E0,1E1,5E0,1.005E3,8.17E2,7E0,7E0,2E0,1.7E1,1.2E1,1E0,2.3E1,1E0,2.66E2,3.3E1,1.9E1,2.12E2,2.5E1,5E0,5E0,1E0,2.21E2,1.24E2,5E0,3E0,1.1E1,1E0],"tree_param":{"num_deleted":"0","num_feature":"107","num_nodes":"95","size_leaf_vector":"0"}},{"base_weights":[1.0189049E4,7.129831E3,1.2674639E4,4.8563994E3,1.0515631E4,8.429067E3,1.6216832E4,3.0799106E3,7.7438135E3,1.0024795E4,3.835322E4,7.8877227E3,2.6843104E4,1.8091781E4,6.910658E3,2.7046006E3,1.438914E4,4.0532703E3,1.139621E4,4.0092751E3,1.2497979E4,4.567342E4,1.8970246E4,3.8119614E3,9.616858E3,3.02452E4,-3.2506727E4,1.9049936E4,3.945787E3,2.8636675E3,1.0889227E4,2.2954045E3,1.3599719E4,1.3511195E3,2.081164E4,-3.0558774E3,4.803975E3,1.4219694E4,2.9237886E3,3.5696184E3,3.256951E4,1.81333E4,8.768223E3,3.5750793E3,3.6135457E4,1.013105E4,-9.828232E3,-1.6362285E3,3.153434E4,1.9874188E4,2.8496062E3,5.0961167E3,-3.426249E4,4.8022563E3,-1.0628494E4,1.7475713E4,7.131609E3,1.4895654E3,8.033313E3,1.7041094E4,3.2992769E3,8.821923E3,-9.764128E2,2.317534E4,4.4196343E3,-5.0354873E3,3.8900496E3,3.4922227E3,1.0488405E4,1.7934268E4,6.0455063E3,1.8896106E3,1.48615205E4,2.9091492E3,2.1741516E4,1.1948877E4,2.8251348E4,-7.0669775E2,1.1081144E4,5.689977E3,1.283581E3,1.1136042E4,-1.3797598E2,-4.0033433E3,-1.4087811E4,4.4492188E0,3.2795355E4,2.47658E4,1.7254055E4,4.7212407E3,-2.5550904E4,3.694888E3,2.484052E4,1.8624215E3,1.0242515E4,2.499698E4,-1.9378305E4,1.9349771E4,-2.405815E4,8.907683E3,-3.7051726E3],"categories":[],"categories_nodes":[],"categories_segments":[],"categories_sizes":[],"default_left":[1,1,1,1,1,1,1,1,1,1,1,1,1,1,1,1,1,1,1,1,1,0,0,1,1,1,0,1,1,1,1,1,1,1,1,1,1,1,1,1,0,1,1,1,0,1,1,0,1,1,1,1,0,1,1,1,1,0,0,0,0,0,0,0,0,0,0,0,0,0,0,0,0,0,0,0,0,0,0,0,0,0,0,0,0,0,0,0,0,0,0,0,0,0,0,0,0,0,0,0,0],"id":5,"left_children":[1,3,5,7,9,11,13,15,17,19,21,23,25,27,29,31,33,35,37,39,41,-1,-1,43,45,47,-1,49,51,53,55,57,59,61,63,65,67,69,71,73,-1,75,77,79,-1,81,83,-1,85,87,89,91,-1,93,95,97,99,-1,-1,-1,-1,-1,-1,-1,-1,-1,-1,-1,-1,-1,-1,-1,-1,-1,-1,-1,-1,-1,-1,-1,-1,-1,-1,-1,-1,-1,-1,-1,-1,-1,-1,-1,-1,-1,-1,-1,-1,-1,-1,-1,-1],"loss_changes":[3.0013719E10,1.3627187E10,3.2692666E10,5.439023E9,9.357722E9,9.706775E9,2.0621328E10,2.7666765E9,5.4129357E9,1.0393887E10,8.362107E8,6.785364E9,6.636757E9,1.3329826E10,3.205163E9,2.8265144E9,1.7303516E9,1.0980652E9,4.814541E9,2.4704195E9,1.0287137E10,0E0,0E0,2.0913021E9,6.8885586E9,1.1612856E9,0E0,1.2308349E10,2.9875407E9,2.6927718E9,2.3750697E9,2.8501852E9,7.590733E8,1.4772213E8,4.4001434E8,2.9459283E8,1.3353802E9,4.5068493E9,6.1389594E8,2.3851543E9,0E0,1.1989561E10,6.604169E9,1.3932726E9,0E0,6.8335657E9,3.902098E8,0E0,1.0336092E9,1.0864165E10,2.5657795E9,1.6512019E9,0E0,1.4043423E9,4.5367096E9,3.2676465E9,1.3033014E9,0E0,0E0,0E0,0E0,0E0,0E0,0E0,0E0,0E0,0E0,0E0,0E0,0E0,0E0,0E0,0E0,0E0,0E0,0E0,0E0,0E0,0E0,0E0,0E0,0E0,0E0,0E0,0E0,0E0,0E0,0E0,0E0,0E0,0E0,0E0,0E0,0E0,0E0,0E0,0E0,0E0,0E0,0E0,0E0],"parents":[2147483647,0,0,1,1,2,2,3,3,4,4,5,5,6,6,7,7,8,8,9,9,10,10,11,11,12,12,13,13,14,14,15,15,16,16,17,17,18,18,19,19,20,20,23,23,24,24,25,25,27,27,28,28,29,29,30,30,31,31,32,32,33,33,34,34,35,35,36,36,37,37,38,38,39,39,41,41,42,42,43,43,45,45,46,46,48,48,49,49,50,50,51,51,53,53,54,54,55,55,56,56],"right_children":[2,4,6,8,10,12,14,16,18,20,22,24,26,28,30,32,34,36,38,40,42,-1,-1,44,46,48,-1,50,52,54,56,58,60,62,64,66,68,70,72,74,-1,76,78,80,-1,82,84,-1,86,88,90,92,-1,94,96,98,100,-1,-1,-1,-1,-1,-1,-1,-1,-1,-1,-1,-1,-1,-1,-1,-1,-1,-1,-1,-1,-1,-1,-1,-1,-1,-1,-1,-1,-1,-1,-1,-1,-1,-1,-1,-1,-1,-1,-1,-1,-1,-1,-1,-1],"split_conditions":[2.0155E3,1.5E0,5E-1,3.9E0,5E-1,5E-1,5E-1,5E-1,2.0115E3,1.3E2,1.50375E5,1.55E0,2.0205E3,5E-1,1.835E2,5E-1,2.006E3,1.24E2,5E-1,5E-1,2.01E2,1.3702027E4,5.691074E3,5E-1,5E-1,1.56E2,-9.752019E3,5E-1,3.55E0,2.0195E3,4.96855E4,2.99E2,1.42E2,1.9825E3,5E-1,2.0095E3,5E-1,2.415E5,5E-1,5E-1,9.770854E3,1.975E2,2.42E2,2.235E2,1.0840638E4,5E-1,1.7E0,-4.9086856E2,2.7E0,2.5E0,5E-1,2.0205E3,-1.0278747E4,2.0175E3,5.25E3,5E-1,5E-1,4.4686966E2,2.409994E3,5.112328E3,9.897831E2,2.646577E3,-2.9292386E2,6.952602E3,1.3258904E3,-1.5106462E3,1.1670149E3,1.0476669E3,3.1465217E3,5.3802803E3,1.813652E3,5.668832E2,4.4584565E3,8.727448E2,6.522455E3,3.5846633E3,8.475404E3,-2.1200934E2,3.3243433E3,1.7069932E3,3.8507434E2,3.3408127E3,-4.1392796E1,-1.201003E3,-4.2263433E3,1.3347657E0,9.838607E3,7.4297407E3,5.176217E3,1.4163723E3,-7.6652715E3,1.1084664E3,7.4521562E3,5.587265E2,3.0727546E3,7.499094E3,-5.8134917E3,5.8049316E3,-7.2174453E3,2.672305E3,-1.1115519E3],"split_indices":[1,3,3,4,70,42,49,64,1,0,7,4,1,55,0,47,1,0,39,51,0,0,0,5,71,0,0,66,4,1,7,0,0,1,93,1,75,7,20,24,0,0,0,0,0,55,4,0,4,2,98,1,0,1,7,104,15,0,0,0,0,0,0,0,0,0,0,0,0,0,0,0,0,0,0,0,0,0,0,0,0,0,0,0,0,0,0,0,0,0,0,0,0,0,0,0,0,0,0,0,0],"split_type":[0,0,0,0,0,0,0,0,0,0,0,0,0,0,0,0,0,0,0,0,0,0,0,0,0,0,0,0,0,0,0,0,0,0,0,0,0,0,0,0,0,0,0,0,0,0,0,0,0,0,0,0,0,0,0,0,0,0,0,0,0,0,0,0,0,0,0,0,0,0,0,0,0,0,0,0,0,0,0,0,0,0,0,0,0,0,0,0,0,0,0,0,0,0,0,0,0,0,0,0,0],"sum_hessian":[3.958E3,1.776E3,2.182E3,1.064E3,7.12E2,9.94E2,1.188E3,6.6E2,4.04E2,7.01E2,1.1E1,9.67E2,2.7E1,9.88E2,2E2,6.4E2,2E1,2.02E2,2.02E2,2.05E2,4.96E2,7E0,4E0,2.89E2,6.78E2,2.6E1,1E0,9.25E2,6.3E1,1E2,1E2,6.18E2,2.2E1,7E0,1.3E1,1.9E1,1.83E2,1.51E2,5.1E1,2.03E2,2E0,1.96E2,3E2,2.88E2,1E0,6.61E2,1.7E1,1E0,2.5E1,8.8E2,4.5E1,6.2E1,1E0,8.8E1,1.2E1,3.5E1,6.5E1,5.43E2,7.5E1,1.6E1,6E0,1E0,6E0,1.1E1,2E0,1.5E1,4E0,1.5E2,3.3E1,1.03E2,4.8E1,4.8E1,3E0,1.97E2,6E0,1.23E2,7.3E1,5.9E1,2.41E2,1.49E2,1.39E2,6.02E2,5.9E1,8E0,9E0,1E0,2.4E1,3.04E2,5.76E2,4.3E1,2E0,5.9E1,3E0,5.8E1,3E1,2E0,1E1,3.4E1,1E0,5.6E1,9E0],"tree_param":{"num_deleted":"0","num_feature":"107","num_nodes":"101","size_leaf_vector":"0"}},{"base_weights":[7.159588E3,6.7543086E3,2.1412541E4,7.9339653E3,3.0771963E3,6.0196597E3,2.4803979E4,8.657647E2,8.726481E3,1.5934435E3,6.5178516E3,-6.046359E2,7.613885E3,2.2840648E4,4.8156605E4,2.1031465E3,-6.8512627E3,7.284268E3,1.4082029E4,-2.9011335E3,2.4943757E3,3.836868E3,1.1211383E4,2.7458386E3,-3.7535652E3,2.9904258E3,1.0551263E4,2.0000871E4,3.365964E4,1.4672439E3,1.7536035E4,1.3205351E4,-8.782188E3,9.940634E3,4.7950317E3,1.6075526E4,2.3869136E3,-1.3395007E3,-5.70976E3,3.287494E3,-1.9790494E3,4.5683467E3,-3.9920269E3,1.761118E4,1.6495022E3,2.401914E2,3.8785664E3,8.307375E3,1.0440938E3,1.2944111E4,6.532474E2,2.029728E4,-7.744922E1,3.492534E4,7.337082E3,1.1343634E3,1.728521E4,5.3515913E3,2.1993426E4,-1.6508084E4,-6.1716807E3,6.4141772E3,1.2236224E4,4.4223613E3,2.4120484E4,-1.0709058E3,1.6754707E4,4.0159578E3,-2.3503557E4,-1.6902084E3,1.178037E4,-6.553103E3,3.3077686E3,-2.8680815E3,3.9376445E3,-1.4705391E3,-1.5049147E4,1.6869452E3,8.127833E3,-5.0425337E3,4.2012695E2,4.0349402E3,2.8273635E4,2.7797076E2,1.1743241E4,2.493944E3,-3.827504E3,1.1996393E3,1.6658996E4,-1.692625E3,2.672496E3,2.1043346E4,9.080703E3,3.6117566E4,9.117078E3],"categories":[],"categories_nodes":[],"categories_segments":[],"categories_sizes":[],"default_left":[1,1,1,1,1,1,1,1,1,1,1,1,1,1,0,1,1,1,1,1,1,1,1,1,0,1,1,1,1,1,1,0,1,1,1,1,1,1,1,1,1,1,1,1,1,0,0,0,1,1,1,1,0,1,0,0,0,0,0,0,0,0,0,0,0,0,0,0,0,0,0,0,0,0,0,0,0,0,0,0,0,0,0,0,0,0,0,0,0,0,0,0,0,0,0],"id":6,"left_children":[1,3,5,7,9,11,13,15,17,19,21,23,25,27,-1,29,31,33,35,37,39,41,43,45,-1,47,49,51,53,55,57,-1,59,61,63,65,67,69,71,73,75,77,79,81,83,-1,-1,-1,85,87,89,91,-1,93,-1,-1,-1,-1,-1,-1,-1,-1,-1,-1,-1,-1,-1,-1,-1,-1,-1,-1,-1,-1,-1,-1,-1,-1,-1,-1,-1,-1,-1,-1,-1,-1,-1,-1,-1,-1,-1,-1,-1,-1,-1],"loss_changes":[2.2724264E10,1.6680174E10,5.5409254E9,1.6321298E10,4.773076E9,2.2637651E8,2.9806264E9,2.8313375E9,2.0141621E10,2.6635837E9,3.5054674E9,6.3058716E7,1.993216E8,1.9075523E9,0E0,2.4767926E9,1.703813E9,1.3620003E10,1.2900999E10,4.748165E8,1.9472376E9,1.054764E9,6.2127473E9,7.58305E6,0E0,7.411472E7,2.2838886E8,4.1221734E8,2.7681178E8,1.2757036E9,4.2540877E8,0E0,6.6452096E8,8.0087204E9,7.5922985E9,5.5379313E9,3.5528799E9,3.5120048E8,3.182661E8,1.8722473E9,5.2951088E8,1.6888364E9,7.627848E7,8.716038E9,5.781787E8,0E0,0E0,0E0,5.8987188E7,3.2905E8,1.8734234E7,3.7795635E8,0E0,1.322537E8,0E0,0E0,0E0,0E0,0E0,0E0,0E0,0E0,0E0,0E0,0E0,0E0,0E0,0E0,0E0,0E0,0E0,0E0,0E0,0E0,0E0,0E0,0E0,0E0,0E0,0E0,0E0,0E0,0E0,0E0,0E0,0E0,0E0,0E0,0E0,0E0,0E0,0E0,0E0,0E0,0E0],"parents":[2147483647,0,0,1,1,2,2,3,3,4,4,5,5,6,6,7,7,8,8,9,9,10,10,11,11,12,12,13,13,15,15,16,16,17,17,18,18,19,19,20,20,21,21,22,22,23,23,25,25,26,26,27,27,28,28,29,29,30,30,32,32,33,33,34,34,35,35,36,36,37,37,38,38,39,39,40,40,41,41,42,42,43,43,44,44,48,48,49,49,50,50,51,51,53,53],"right_children":[2,4,6,8,10,12,14,16,18,20,22,24,26,28,-1,30,32,34,36,38,40,42,44,46,-1,48,50,52,54,56,58,-1,60,62,64,66,68,70,72,74,76,78,80,82,84,-1,-1,-1,86,88,90,92,-1,94,-1,-1,-1,-1,-1,-1,-1,-1,-1,-1,-1,-1,-1,-1,-1,-1,-1,-1,-1,-1,-1,-1,-1,-1,-1,-1,-1,-1,-1,-1,-1,-1,-1,-1,-1,-1,-1,-1,-1,-1,-1],"split_conditions":[5E-1,1.94355E5,2.0085E3,4.1E2,5E-1,2.0035E3,2.0185E3,5E-1,3.65E0,2.0065E3,1.925E2,1.1845E3,1.5E0,1.975E2,1.4446982E4,6.15E0,1.06E2,8.6869E4,5E-1,2.74E2,5E-1,1.835E2,2.005E2,1.975E2,-1.1260696E3,2.0045E3,6.85E0,5E-1,5E-1,5E-1,2.0115E3,3.9616052E3,5E-1,1.9E0,5E-1,6.224E3,5E-1,5E-1,5E-1,1.8499999E0,5E-1,1.32E2,2.0155E3,2.0095E3,5E-1,7.205743E1,1.16357E3,2.4922126E3,2.43E5,2.75E0,2.006E3,5E-1,-2.3234766E1,3.195E5,2.2011248E3,3.4030902E2,5.1855635E3,1.6054774E3,6.598028E3,-4.9524253E3,-1.8515043E3,1.9242533E3,3.6708672E3,1.3267085E3,7.2361455E3,-3.2127173E2,5.026412E3,1.2047874E3,-7.0510674E3,-5.0706253E2,3.534111E3,-1.965931E3,9.923306E2,-8.604245E2,1.1812935E3,-4.4116174E2,-4.5147446E3,5.060836E2,2.43835E3,-1.5127601E3,1.2603809E2,1.210482E3,8.482091E3,8.3391235E1,3.5229724E3,7.481832E2,-1.1482512E3,3.5989178E2,4.997699E3,-5.077875E2,8.0174884E2,6.313004E3,2.724211E3,1.08352705E4,2.7351235E3],"split_indices":[57,7,1,7,75,1,1,49,4,1,0,7,2,0,0,4,7,7,39,0,49,0,0,0,0,1,4,16,15,5,1,0,3,4,25,7,87,18,67,4,11,0,1,1,93,0,0,0,7,4,1,11,0,7,0,0,0,0,0,0,0,0,0,0,0,0,0,0,0,0,0,0,0,0,0,0,0,0,0,0,0,0,0,0,0,0,0,0,0,0,0,0,0,0,0],"split_type":[0,0,0,0,0,0,0,0,0,0,0,0,0,0,0,0,0,0,0,0,0,0,0,0,0,0,0,0,0,0,0,0,0,0,0,0,0,0,0,0,0,0,0,0,0,0,0,0,0,0,0,0,0,0,0,0,0,0,0,0,0,0,0,0,0,0,0,0,0,0,0,0,0,0,0,0,0,0,0,0,0,0,0,0,0,0,0,0,0,0,0,0,0,0,0],"sum_hessian":[3.958E3,3.85E3,1.08E2,2.914E3,9.36E2,2E1,8.8E1,2.94E2,2.62E3,6.55E2,2.81E2,4E0,1.6E1,8.3E1,5E0,2.54E2,4E1,2.066E3,5.54E2,1.09E2,5.46E2,1.8E2,1.01E2,2E0,2E0,7E0,9E0,6.8E1,1.5E1,2.45E2,9E0,3E0,3.7E1,9.98E2,1.068E3,4.73E2,8.1E1,7.1E1,3.8E1,4.64E2,8.2E1,1.65E2,1.5E1,6E1,4.1E1,1E0,1E0,1E0,6E0,7E0,2E0,6.7E1,1E0,1.4E1,1E0,2.41E2,4E0,3E0,6E0,8E0,2.9E1,3.95E2,6.03E2,1.049E3,1.9E1,1.8E1,4.55E2,7.7E1,4E0,7E1,1E0,3.5E1,3E0,4.4E1,4.2E2,8E1,2E0,9.2E1,7.3E1,1.2E1,3E0,2.7E1,3.3E1,3.7E1,4E0,5E0,1E0,2E0,5E0,1E0,1E0,6.2E1,5E0,1.3E1,1E0],"tree_param":{"num_deleted":"0","num_feature":"107","num_nodes":"95","size_leaf_vector":"0"}},{"base_weights":[5.032743E3,5.4659385E3,-2.5737146E3,5.154922E3,1.5604592E4,-4.196158E3,1.044547E4,4.8362905E3,1.5420757E4,5.3906562E3,1.9673645E4,-3.3542063E3,-1.9100064E4,1.2700301E4,-2.0707828E4,2.3696284E3,6.1621367E3,5.897011E3,1.833305E4,7.835049E3,-9.864954E3,2.755904E4,1.7067021E4,-3.0472268E3,-2.9458764E4,-7.633643E3,-3.4391285E4,2.1581914E4,4.208144E3,2.1821748E3,2.3029719E4,4.949755E3,1.0278458E4,-4.013332E2,7.0098247E3,1.672998E4,3.611745E4,1.8003664E4,4.3995986E3,1.7722111E4,3.100066E4,1.1660788E4,2.20971E4,-3.545913E3,9.855248E3,-8.433585E3,-1.4169961E3,2.4009822E4,7.1042163E3,5.105731E3,-3.2814473E3,1.201015E3,5.074305E3,7.8102197E3,2.7760754E4,4.7365093E3,3.586656E4,7.6724565E3,1.7599326E4,2.333963E3,-3.0028516E3,3.7259824E3,1.2701281E4,1.4311665E4,2.399594E4,-1.536873E3,2.1516566E4,-7.748782E2,1.0114926E4,7.9262812E3,2.0055188E4,-6.169008E3,1.2434943E4,1.0241746E4,2.398306E4,-2.8411E3,-1.1448326E4,2.0414383E4,-2.674978E4,8.058052E3,2.622314E3],"categories":[],"categories_nodes":[],"categories_segments":[],"categories_sizes":[],"default_left":[1,1,1,1,1,1,1,1,1,1,1,1,1,1,0,1,1,1,1,1,0,1,1,1,0,1,0,1,1,1,1,1,1,1,1,1,0,1,1,1,0,1,1,1,1,0,0,0,0,1,0,0,0,0,0,0,0,0,0,0,0,0,0,0,0,0,0,0,0,0,0,0,0,0,0,0,0,0,0,0,0],"id":7,"left_children":[1,3,5,7,9,11,13,15,17,19,21,23,25,27,-1,29,31,33,35,37,-1,39,41,43,-1,45,-1,47,49,51,53,55,57,59,61,63,-1,65,67,69,-1,71,73,75,77,-1,-1,-1,-1,79,-1,-1,-1,-1,-1,-1,-1,-1,-1,-1,-1,-1,-1,-1,-1,-1,-1,-1,-1,-1,-1,-1,-1,-1,-1,-1,-1,-1,-1,-1,-1],"loss_changes":[1.3059293E10,1.173178E10,4.5641293E9,1.1818844E10,4.507224E9,2.3326733E9,1.9488863E9,1.1523416E10,2.9151068E9,1.3078856E9,1.1534377E9,1.368702E9,1.4908244E9,1.6439332E9,0E0,4.732663E9,1.1397456E10,1.9205318E8,1.7620562E9,9.338707E8,0E0,5.9992064E7,1.4283428E9,1.1995517E9,0E0,2.286032E7,0E0,2.1608448E8,1.0414742E8,3.4700165E9,5.752264E8,1.1525853E10,9.804706E9,4.258816E7,3.825417E8,1.0271457E9,0E0,5.135762E8,6.88036E8,1.017856E6,0E0,5.184082E8,4.4749312E8,9.4217574E8,3.251702E9,0E0,0E0,0E0,0E0,6.685136E7,0E0,0E0,0E0,0E0,0E0,0E0,0E0,0E0,0E0,0E0,0E0,0E0,0E0,0E0,0E0,0E0,0E0,0E0,0E0,0E0,0E0,0E0,0E0,0E0,0E0,0E0,0E0,0E0,0E0,0E0,0E0],"parents":[2147483647,0,0,1,1,2,2,3,3,4,4,5,5,6,6,7,7,8,8,9,9,10,10,11,11,12,12,13,13,15,15,16,16,17,17,18,18,19,19,21,21,22,22,23,23,25,25,27,27,28,28,29,29,30,30,31,31,32,32,33,33,34,34,35,35,37,37,38,38,39,39,41,41,42,42,43,43,44,44,49,49],"right_children":[2,4,6,8,10,12,14,16,18,20,22,24,26,28,-1,30,32,34,36,38,-1,40,42,44,-1,46,-1,48,50,52,54,56,58,60,62,64,-1,66,68,70,-1,72,74,76,78,-1,-1,-1,-1,80,-1,-1,-1,-1,-1,-1,-1,-1,-1,-1,-1,-1,-1,-1,-1,-1,-1,-1,-1,-1,-1,-1,-1,-1,-1,-1,-1,-1,-1,-1,-1],"split_conditions":[5E-1,5E-1,2.93E2,5E-1,2.0085E3,3.55E0,5E-1,2.0145E3,2.0115E3,4.375E5,7.2E4,5E-1,2.0145E3,1.85E0,-6.2123486E3,5E-1,3.55E0,2.0035E3,2.0185E3,1.9925E3,-2.9594863E3,2.0155E3,5.25E1,2.0205E3,-8.83763E3,5E-1,-1.0317386E4,1.5E0,5E-1,5E-1,2.01E3,5E-1,2.925E2,1.1845E3,5E-1,1.9E2,1.0835235E4,4.3385E3,2.0055E3,4.95E1,9.300198E3,2.0135E3,1.5E0,5E-1,4.69175E4,-2.5300757E3,-4.2509885E2,7.202947E3,2.131265E3,2.0165E3,-9.844342E2,3.603045E2,1.5222916E3,2.343066E3,8.328227E3,1.4209529E3,1.0759968E4,2.301737E3,5.279798E3,7.001889E2,-9.008555E2,1.1177948E3,3.8103845E3,4.2934995E3,7.198782E3,-4.6106192E2,6.45497E3,-2.3246346E2,3.0344778E3,2.3778845E3,6.0165566E3,-1.8507024E3,3.7304832E3,3.072524E3,7.1949185E3,-8.523301E2,-3.434498E3,6.124315E3,-8.024934E3,2.4174155E3,7.866942E2],"split_indices":[55,64,0,57,1,4,18,1,1,7,7,87,1,4,0,70,4,1,1,1,0,1,0,1,0,15,0,3,94,75,1,24,0,7,100,0,0,7,1,0,0,1,2,16,7,0,0,0,0,1,0,0,0,0,0,0,0,0,0,0,0,0,0,0,0,0,0,0,0,0,0,0,0,0,0,0,0,0,0,0,0],"split_type":[0,0,0,0,0,0,0,0,0,0,0,0,0,0,0,0,0,0,0,0,0,0,0,0,0,0,0,0,0,0,0,0,0,0,0,0,0,0,0,0,0,0,0,0,0,0,0,0,0,0,0,0,0,0,0,0,0,0,0,0,0,0,0,0,0,0,0,0,0,0,0,0,0,0,0,0,0,0,0,0,0],"sum_hessian":[3.958E3,3.745E3,2.13E2,3.635E3,1.1E2,1.9E2,2.3E1,3.527E3,1.08E2,3.2E1,7.8E1,1.81E2,9E0,2.2E1,1E0,1.234E3,2.293E3,2.6E1,8.2E1,2.8E1,4E0,1.7E1,6.1E1,1.8E2,1E0,6E0,3E0,1E1,1.2E1,1.224E3,1E1,1.773E3,5.2E2,4E0,2.2E1,7.7E1,5E0,6E0,2.2E1,6E0,1.1E1,3.1E1,3E1,1.74E2,6E0,5E0,1E0,8E0,2E0,1.1E1,1E0,9.15E2,3.09E2,3E0,7E0,1.762E3,1.1E1,3.85E2,1.35E2,2E0,2E0,1.5E1,7E0,6E1,1.7E1,1E0,5E0,1.2E1,1E1,2E0,4E0,1E0,3E1,5E0,2.5E1,1.61E2,1.3E1,5E0,1E0,4E0,7E0],"tree_param":{"num_deleted":"0","num_feature":"107","num_nodes":"81","size_leaf_vector":"0"}},{"base_weights":[3.5411304E3,3.48519E3,4.7081645E4,2.854739E3,6.9376553E3,3.4476929E3,-1.2619541E3,3.4882942E3,1.1598804E4,3.6056191E3,-1.50159795E4,-1.8141005E3,1.1231449E4,-2.3670344E4,4.0276646E3,1.271208E4,-2.4919275E4,3.9810715E3,-2.5258855E3,-1.2926684E4,-3.2579543E4,-2.6013647E3,6.852852E3,1.2254682E4,-3.08175E3,-5.2732144E3,-3.6149887E4,7.2810938E3,1.5877893E3,1.3994253E4,-1.6651355E4,-3.1802736E4,1.1632477E4,2.185674E2,4.6562153E3,-3.3622004E3,4.630195E3,-1.7693932E4,-1.0354604E4,-8.1599497E3,-1.5904763E3,1.3550459E3,1.4610071E4,1.2797111E4,1.7879004E3,-7.448362E3,6.2611426E2,7.766907E3,-1.8788875E4,2.932942E3,-4.0059895E3,1.47908125E4,-2.6720836E4,-2.9607925E3,-3.986964E4,-3.7608176E4,1.5149531E3],"categories":[],"categories_nodes":[],"categories_segments":[],"categories_sizes":[],"default_left":[1,1,0,1,1,1,1,1,1,1,1,1,1,1,1,1,1,1,1,1,0,1,1,1,0,1,0,1,1,1,1,1,0,0,0,0,0,0,0,0,0,0,0,0,0,0,0,0,0,0,0,0,0,0,0,0,0],"id":8,"left_children":[1,3,-1,5,7,9,11,13,15,17,19,21,23,25,27,29,31,33,35,37,-1,39,41,43,-1,45,-1,47,49,51,53,55,-1,-1,-1,-1,-1,-1,-1,-1,-1,-1,-1,-1,-1,-1,-1,-1,-1,-1,-1,-1,-1,-1,-1,-1,-1],"loss_changes":[9.478722E9,8.5886853E9,0E0,8.1719665E9,9.767107E9,8.5831434E9,2.9314102E9,5.251632E9,1.0846351E10,6.688416E9,4.9624166E8,2.7812152E9,3.0138906E8,1.4164884E9,2.7349734E9,9.72057E9,2.382765E9,6.9439734E9,1.0210033E9,1.1106816E8,0E0,2.0773304E9,1.4302241E9,7.363738E7,0E0,5.599116E7,0E0,2.020374E9,1.5091222E9,8.243765E9,3.3785395E9,1.4109414E9,0E0,0E0,0E0,0E0,0E0,0E0,0E0,0E0,0E0,0E0,0E0,0E0,0E0,0E0,0E0,0E0,0E0,0E0,0E0,0E0,0E0,0E0,0E0,0E0,0E0],"parents":[2147483647,0,0,1,1,3,3,4,4,5,5,6,6,7,7,8,8,9,9,10,10,11,11,12,12,13,13,14,14,15,15,16,16,17,17,18,18,19,19,21,21,22,22,23,23,25,25,27,27,28,28,29,29,30,30,31,31],"right_children":[2,4,-1,6,8,10,12,14,16,18,20,22,24,26,28,30,32,34,36,38,-1,40,42,44,-1,46,-1,48,50,52,54,56,-1,-1,-1,-1,-1,-1,-1,-1,-1,-1,-1,-1,-1,-1,-1,-1,-1,-1,-1,-1,-1,-1,-1,-1,-1],"split_conditions":[5E-1,2.0185E3,1.4124494E4,5E-1,2.15E0,5E-1,5E-1,5E-1,3.375E2,5E-1,5E-1,3.055E2,5E-1,2.0195E3,3.07825E4,5E-1,3.475E2,2.0085E3,2.915E2,7.35E4,-9.773863E3,4.05E4,2.0165E3,5E-1,-9.24525E2,9.8794E4,-1.0844967E4,5E-1,2.0195E3,5E-1,1.145E2,5E-1,3.4897432E3,6.557022E1,1.3968646E3,-1.00866016E3,1.3890585E3,-5.3081797E3,-3.106381E3,-2.447985E3,-4.771429E2,4.065138E2,4.3830215E3,3.8391335E3,5.363701E2,-2.2345085E3,1.8783429E2,2.3300723E3,-5.6366626E3,8.798826E2,-1.2017969E3,4.437244E3,-8.016251E3,-8.882378E2,-1.1960893E4,-1.1282453E4,4.5448596E2],"split_indices":[62,1,0,49,4,71,5,6,0,55,81,0,84,1,7,12,0,1,0,7,0,7,1,16,0,7,0,80,1,104,0,12,0,0,0,0,0,0,0,0,0,0,0,0,0,0,0,0,0,0,0,0,0,0,0,0,0],"split_type":[0,0,0,0,0,0,0,0,0,0,0,0,0,0,0,0,0,0,0,0,0,0,0,0,0,0,0,0,0,0,0,0,0,0,0,0,0,0,0,0,0,0,0,0,0,0,0,0,0,0,0,0,0,0,0,0,0],"sum_hessian":[3.958E3,3.954E3,4E0,3.345E3,6.09E2,2.924E3,4.21E2,3.51E2,2.58E2,2.9E3,2.4E1,4.04E2,1.7E1,6E0,3.45E2,2.51E2,7E0,2.733E3,1.67E2,2.3E1,1E0,3.71E2,3.3E1,1.6E1,1E0,3E0,3E0,1.47E2,1.98E2,2.41E2,1E1,6E0,1E0,4.16E2,2.317E3,1.5E2,1.7E1,6E0,1.7E1,5.6E1,3.15E2,2E1,1.3E1,1.5E1,1E0,2E0,1E0,1.45E2,2E0,1.6E2,3.8E1,2.37E2,4E0,7E0,3E0,5E0,1E0],"tree_param":{"num_deleted":"0","num_feature":"107","num_nodes":"57","size_leaf_vector":"0"}},{"base_weights":[2.4693967E3,1.4825175E3,4.448024E3,1.4054696E3,2.6684469E4,3.2811194E3,9.61803E3,4.8650546E2,3.1104524E3,8.577663E3,4.264686E4,7.576961E2,6.274862E3,4.3539595E3,1.1446425E4,1.126618E3,-5.7808003E3,-2.7304414E3,4.658429E3,1.7498262E3,9.847166E3,5.6623834E2,3.7711754E4,3.7400845E3,1.1011257E4,5.4214766E3,-6.8689536E3,1.052221E3,1.253068E4,7.981411E2,1.007654E4,-3.7783403E3,-9.604503E3,-3.1301628E3,1.7038877E4,1.2245308E4,3.2781562E3,2.2603613E1,8.36251E3,-8.9745026E2,5.6848564E3,1.1967881E4,-2.314223E4,6.785021E3,-4.119246E3,-2.6180708E3,-1.02471455E4,-2.5262368E3,1.9786588E4,1.1611974E4,2.304683E4,8.777863E2,-2.9248438E4,1.302021E4,5.257782E2,-1.3337945E4,-2.753862E3,-1.6064282E4,-2.0299612E3,-4.3775254E3,-5.8652905E2,2.5262766E4,5.8766587E3,1.7295518E3,1.494343E4,2.1892085E3,1.0001643E4,-1.6110565E2,2.4955486E4,1.0837305E4,-2.2726357E3,-1.4352265E4,1.0126112E3,2.6117732E4,5.011938E3,1.4757012E4,2.743463E3,-8.8310205E3,-2.9739361E4,3.5549001E3,1.220813E4,-9.483402E3,7.982149E3,3.2515156E3,-6.31804E3,1.3722052E4,-2.1038418E3,2.8046277E4,-1.3002656E3],"categories":[],"categories_nodes":[],"categories_segments":[],"categories_sizes":[],"default_left":[1,1,1,1,1,1,1,1,1,1,0,1,1,1,1,1,1,1,1,0,0,1,0,1,1,1,1,1,1,1,1,1,1,1,1,1,1,1,1,1,1,1,1,1,1,0,0,1,0,1,1,0,0,0,0,0,0,0,0,0,0,0,0,0,0,0,0,0,0,0,0,0,0,0,0,0,0,0,0,0,0,0,0,0,0,0,0,0,0],"id":9,"left_children":[1,3,5,7,9,11,13,15,17,19,-1,21,23,25,27,29,31,33,35,-1,-1,37,-1,39,41,43,45,47,49,51,53,55,57,59,61,63,65,67,69,71,73,75,77,79,81,-1,-1,83,-1,85,87,-1,-1,-1,-1,-1,-1,-1,-1,-1,-1,-1,-1,-1,-1,-1,-1,-1,-1,-1,-1,-1,-1,-1,-1,-1,-1,-1,-1,-1,-1,-1,-1,-1,-1,-1,-1,-1,-1],"loss_changes":[7.7240115E9,5.094558E9,7.913779E9,4.128619E9,1.9464125E9,8.123865E9,2.2793646E9,6.8827054E9,8.3580846E9,2.610896E7,0E0,4.1176038E9,5.8656256E9,8.0400166E8,2.004138E9,4.566353E9,1.1811436E9,1.586366E9,7.604389E9,0E0,0E0,2.4707538E9,0E0,2.9092035E9,5.8638807E9,7.95492E8,5.933405E7,1.2567081E9,1.2975002E9,3.6200591E9,1.5394401E9,1.0013915E9,2.609603E9,6.034437E8,2.1872666E8,3.1519068E9,4.510128E9,2.5049198E9,1.0247821E9,2.4816878E9,2.990272E9,4.2561106E9,2.0943565E8,8.6750054E8,5.950082E8,0E0,0E0,3.7107283E8,0E0,4.399026E9,1.4971315E9,0E0,0E0,0E0,0E0,0E0,0E0,0E0,0E0,0E0,0E0,0E0,0E0,0E0,0E0,0E0,0E0,0E0,0E0,0E0,0E0,0E0,0E0,0E0,0E0,0E0,0E0,0E0,0E0,0E0,0E0,0E0,0E0,0E0,0E0,0E0,0E0,0E0,0E0],"parents":[2147483647,0,0,1,1,2,2,3,3,4,4,5,5,6,6,7,7,8,8,9,9,11,11,12,12,13,13,14,14,15,15,16,16,17,17,18,18,21,21,23,23,24,24,25,25,26,26,27,27,28,28,29,29,30,30,31,31,32,32,33,33,34,34,35,35,36,36,37,37,38,38,39,39,40,40,41,41,42,42,43,43,44,44,47,47,49,49,50,50],"right_children":[2,4,6,8,10,12,14,16,18,20,-1,22,24,26,28,30,32,34,36,-1,-1,38,-1,40,42,44,46,48,50,52,54,56,58,60,62,64,66,68,70,72,74,76,78,80,82,-1,-1,84,-1,86,88,-1,-1,-1,-1,-1,-1,-1,-1,-1,-1,-1,-1,-1,-1,-1,-1,-1,-1,-1,-1,-1,-1,-1,-1,-1,-1,-1,-1,-1,-1,-1,-1,-1,-1,-1,-1,-1,-1],"split_conditions":[1.5E0,5E-1,5E-1,2.425E2,2.017E3,5E-1,2.0135E3,2.12E2,1.55E0,7.0139E4,1.2794059E4,5E-1,2.0165E3,5E-1,1.7E0,5E-1,2.0155E3,3.455E2,2.685E2,5.249479E2,2.95415E3,5E-1,1.1313526E4,1.3E2,5E-1,5E-1,5E-1,5E-1,3.11E2,1.5E0,4E1,2.135E2,5E-1,5E-1,3.48E2,2.0115E3,2.0185E3,5E-1,5E-1,5E-1,1.2E0,9.4729E4,2.6407E4,2.0105E3,5E-1,-7.8542126E2,-3.0741438E3,4.6E1,5.9359766E3,3.04E2,2.275E5,2.633359E2,-8.774531E3,3.9060632E3,1.5773346E2,-4.0013838E3,-8.261586E2,-4.8192847E3,-6.089884E2,-1.3132577E3,-1.7595872E2,7.57883E3,1.7629977E3,5.1886554E2,4.4830293E3,6.567626E2,3.000493E3,-4.83317E1,7.486646E3,3.2511917E3,-6.817908E2,-4.3056797E3,3.037834E2,7.83532E3,1.5035814E3,4.4271035E3,8.230389E2,-2.6493062E3,-8.921809E3,1.0664701E3,3.6624392E3,-2.8450208E3,2.3946448E3,9.754547E2,-1.8954121E3,4.1166157E3,-6.311526E2,8.413884E3,-3.900797E2],"split_indices":[3,24,89,0,1,100,1,0,4,7,0,62,1,39,4,47,1,0,0,0,0,64,0,0,60,31,20,47,0,5,0,0,100,75,0,1,1,51,20,6,4,7,7,1,9,0,0,0,0,0,7,0,0,0,0,0,0,0,0,0,0,0,0,0,0,0,0,0,0,0,0,0,0,0,0,0,0,0,0,0,0,0,0,0,0,0,0,0,0],"split_type":[0,0,0,0,0,0,0,0,0,0,0,0,0,0,0,0,0,0,0,0,0,0,0,0,0,0,0,0,0,0,0,0,0,0,0,0,0,0,0,0,0,0,0,0,0,0,0,0,0,0,0,0,0,0,0,0,0,0,0,0,0,0,0,0,0,0,0,0,0,0,0,0,0,0,0,0,0,0,0,0,0,0,0,0,0,0,0,0,0],"sum_hessian":[3.958E3,2.642E3,1.316E3,2.635E3,7E0,1.075E3,2.41E2,1.713E3,9.22E2,4E0,3E0,5.84E2,4.91E2,6.3E1,1.78E2,1.555E3,1.58E2,1.93E2,7.29E2,1E0,3E0,5.82E2,2E0,3.21E2,1.7E2,5.8E1,5E0,1.7E1,1.61E2,1.501E3,5.4E1,1.05E2,5.3E1,1.9E2,3E0,1.11E2,6.18E2,5.45E2,3.7E1,9.5E1,2.26E2,1.66E2,4E0,5.1E1,7E0,3E0,2E0,1.5E1,2E0,1.5E2,1.1E1,1.498E3,3E0,4.1E1,1.3E1,9E0,9.6E1,2.8E1,2.5E1,1.27E2,6.3E1,1E0,2E0,2.3E1,8.8E1,5.33E2,8.5E1,5.42E2,3E0,3E1,7E0,1.1E1,8.4E1,6E0,2.2E2,1.27E2,3.9E1,2E0,2E0,3.3E1,1.8E1,5E0,2E0,6E0,9E0,1.3E2,2E1,9E0,2E0],"tree_param":{"num_deleted":"0","num_feature":"107","num_nodes":"89","size_leaf_vector":"0"}},{"base_weights":[1.7425616E3,1.5807189E3,1.0711499E4,1.375013E3,8.637022E3,1.3104341E4,-1.6996197E4,1.1677217E3,8.414025E3,1.0156749E4,-1.6650304E3,1.4207721E4,-2.8755992E4,4.261812E3,-3.9674812E4,4.4779214E2,3.0054065E3,7.4926763E3,2.2828174E4,1.0677417E4,-4.487963E3,1.5193911E3,-8.337752E3,1.0900404E4,2.7631059E4,1.2222082E4,-2.4656387E3,3.9232806E2,2.9609994E4,6.96042E3,1.9341079E3,2.257238E3,8.727032E3,9.322638E3,2.0989816E4,-7.5676875E3,-9.388255E2,-1.6280012E3,7.434328E3,-3.5278088E3,-1.0368444E4,1.9261889E4,8.251876E3,8.111981E3,3.3236086E4,-3.5234775E3,-1.7498047E2,-3.3665692E2,2.5117432E3,7.468487E3,-3.227923E4,2.2753425E3,-2.108979E4,6.534636E2,6.1577637E3,7.060944E3,1.6434113E4,7.721109E3,1.6778773E4,2.545595E4,2.0835247E3,-4.106097E3,6.800758E2,9.339801E3,8.589551E2,1.0820329E4,2.8916006E4,8.956413E3,-1.0317074E4,1.1311707E4,3.2748367E3,4.3713766E4,1.6111189E4],"categories":[],"categories_nodes":[],"categories_segments":[],"categories_sizes":[],"default_left":[1,1,1,1,1,1,1,1,1,1,1,1,0,1,0,1,1,1,0,1,1,1,1,1,1,0,1,1,0,1,1,1,1,1,1,0,0,1,1,0,0,1,1,1,1,0,0,0,0,0,0,0,0,0,0,0,0,0,0,0,0,0,0,0,0,0,0,0,0,0,0,0,0],"id":10,"left_children":[1,3,5,7,9,11,13,15,17,19,21,23,-1,25,-1,27,29,31,-1,33,35,37,39,41,43,-1,45,47,-1,49,51,53,55,57,59,-1,-1,61,63,-1,-1,65,67,69,71,-1,-1,-1,-1,-1,-1,-1,-1,-1,-1,-1,-1,-1,-1,-1,-1,-1,-1,-1,-1,-1,-1,-1,-1,-1,-1,-1,-1],"loss_changes":[5.729785E9,5.6345487E9,4.863732E9,5.5071304E9,1.7391048E9,3.410768E9,3.0616996E9,4.8593695E9,1.2632448E9,7.799224E8,3.3139968E8,2.5401047E9,0E0,2.4434454E8,0E0,4.260082E9,4.3675965E9,6.459274E8,0E0,1.1036242E9,3.661673E7,2.16886E8,1.225968E7,1.0147717E9,1.04324915E9,0E0,6.652902E6,4.075068E9,0E0,4.627076E9,6.451076E9,1.2734296E8,9.4973645E8,8.735114E8,7.913421E8,0E0,0E0,4.8549544E7,4.209429E7,0E0,0E0,6.6506906E8,6.418696E8,2.4866128E7,9.105828E8,0E0,0E0,0E0,0E0,0E0,0E0,0E0,0E0,0E0,0E0,0E0,0E0,0E0,0E0,0E0,0E0,0E0,0E0,0E0,0E0,0E0,0E0,0E0,0E0,0E0,0E0,0E0,0E0],"parents":[2147483647,0,0,1,1,2,2,3,3,4,4,5,5,6,6,7,7,8,8,9,9,10,10,11,11,13,13,15,15,16,16,17,17,19,19,20,20,21,21,22,22,23,23,24,24,26,26,27,27,29,29,30,30,31,31,32,32,33,33,34,34,37,37,38,38,41,41,42,42,43,43,44,44],"right_children":[2,4,6,8,10,12,14,16,18,20,22,24,-1,26,-1,28,30,32,-1,34,36,38,40,42,44,-1,46,48,-1,50,52,54,56,58,60,-1,-1,62,64,-1,-1,66,68,70,72,-1,-1,-1,-1,-1,-1,-1,-1,-1,-1,-1,-1,-1,-1,-1,-1,-1,-1,-1,-1,-1,-1,-1,-1,-1,-1,-1,-1],"split_conditions":[5E-1,5E-1,5E-1,5E-1,2.40711E5,5E-1,5.3E4,2.0175E3,2.0185E3,5.8E0,4.375E5,5E-1,-8.626798E3,7.45E1,-1.1902444E4,5E-1,2.245E4,2.0085E3,6.8484526E3,4.3E0,4.95E1,5E-1,1.96E2,4.25E4,5E-1,3.6666248E3,1.495E2,5E-1,8.882999E3,5E-1,5E-1,5E-1,4.1E0,2.0165E3,5E-1,-2.2703064E3,-2.8164767E2,3.1E0,3.575E5,-1.0583427E3,-3.1105334E3,5E-1,2.0185E3,1.27E2,9.01695E4,-1.0570433E3,-5.2494144E1,-1.0099708E2,7.5352295E2,2.2405461E3,-9.68377E3,6.826028E2,-6.326937E3,1.960391E2,1.8473292E3,2.1182832E3,4.9302344E3,2.3163328E3,5.0336323E3,7.636785E3,6.2505743E2,-1.2318292E3,2.0402275E2,2.8019404E3,2.5768652E2,3.2460989E3,8.674802E3,2.686924E3,-3.0951223E3,3.3935122E3,9.8245105E2,1.311413E4,4.833357E3],"split_indices":[5,64,93,57,7,90,7,1,1,4,7,75,0,0,0,62,7,1,0,4,0,21,0,7,3,0,0,75,0,104,96,8,4,1,15,0,0,4,7,0,0,100,1,0,7,0,0,0,0,0,0,0,0,0,0,0,0,0,0,0,0,0,0,0,0,0,0,0,0,0,0,0,0],"split_type":[0,0,0,0,0,0,0,0,0,0,0,0,0,0,0,0,0,0,0,0,0,0,0,0,0,0,0,0,0,0,0,0,0,0,0,0,0,0,0,0,0,0,0,0,0,0,0,0,0,0,0,0,0,0,0,0,0,0,0,0,0,0,0,0,0,0,0,0,0,0,0,0,0],"sum_hessian":[3.958E3,3.889E3,6.9E1,3.78E3,1.09E2,6.4E1,5E0,3.673E3,1.07E2,9.5E1,1.4E1,6.3E1,1E0,3E0,2E0,2.64E3,1.033E3,1.02E2,5E0,9.2E1,3E0,1E1,4E0,5.2E1,1.1E1,1E0,2E0,2.636E3,4E0,2.19E2,8.14E2,2E1,8.2E1,8.3E1,9E0,1E0,2E0,7E0,3E0,2E0,2E0,1.1E1,4.1E1,3E0,8E0,1E0,1E0,1.962E3,6.74E2,2.17E2,2E0,8.03E2,1.1E1,1.5E1,5E0,6.9E1,1.3E1,7E1,1.3E1,7E0,2E0,3E0,4E0,2E0,1E0,7E0,4E0,4E1,1E0,1E0,2E0,4E0,4E0],"tree_param":{"num_deleted":"0","num_feature":"107","num_nodes":"73","size_leaf_vector":"0"}},{"base_weights":[1.2296887E3,1.1031953E3,1.1513282E4,1.02214417E3,1.607214E4,1.7676291E4,-1.9175028E3,1.3148274E3,-2.6867092E3,6.060491E3,2.8747615E4,1.2893157E4,3.1011938E4,-7.3832686E3,5.196914E2,1.4134957E3,-1.0500141E4,-2.3597556E3,-4.777076E4,1.03755205E4,2.066658E3,4.4312065E3,3.5062133E4,1.5913345E4,-7.6962095E3,8.039076E3,3.3145336E4,-4.4815635E3,3.5805144E3,2.1356135E3,-3.9282712E2,-8.957528E3,-2.7617947E4,-3.3553162E3,1.0268233E4,2.8778726E3,-1.8059219E3,-6.2332715E2,7.2701367E3,9.658066E3,3.7686465E4,1.1527475E4,2.9396982E4,-5.226266E3,-7.5137695E2,4.9678842E2,4.525625E3,2.0400289E3,2.8969965E4,-2.6580237E3,3.5882172E2,-4.4226963E3,-1.0199398E4,1.780409E3,-4.715342E3,1.6584143E4,-2.0720414E4,-7.025029E2,3.5916855E3,2.2828195E4,4.555742E3,-5.112207E2,1.2564033E3],"categories":[],"categories_nodes":[],"categories_segments":[],"categories_sizes":[],"default_left":[1,1,1,1,1,1,1,1,1,1,1,1,1,0,1,1,1,1,0,0,1,1,1,1,0,0,0,1,1,1,1,1,0,1,1,1,0,0,0,0,0,1,0,0,0,1,0,0,0,0,0,0,0,0,0,0,0,0,0,0,0,0,0],"id":11,"left_children":[1,3,5,7,9,11,13,15,17,19,21,23,25,-1,27,29,31,33,-1,-1,35,37,39,41,-1,-1,-1,43,45,47,49,51,-1,53,55,57,-1,-1,-1,-1,-1,59,-1,-1,-1,61,-1,-1,-1,-1,-1,-1,-1,-1,-1,-1,-1,-1,-1,-1,-1,-1,-1],"loss_changes":[5.137193E9,4.7298053E9,4.0070482E9,4.2283727E9,2.490726E9,1.7051013E9,2.1697515E8,4.2209193E9,4.0882842E9,2.0259296E8,1.2265498E9,1.7392497E9,1.2562432E8,0E0,1.9974178E8,4.669206E9,5.4479565E8,3.6048812E9,0E0,0E0,3.032916E7,4.758008E7,1.0270208E8,1.0212895E9,0E0,0E0,0E0,9.962504E6,2.1067424E7,6.4994693E9,1.7427466E9,1.1820954E8,0E0,1.8523602E9,4.453781E9,2.0413204E7,0E0,0E0,0E0,0E0,0E0,1.3929272E9,0E0,0E0,0E0,2.9393955E6,0E0,0E0,0E0,0E0,0E0,0E0,0E0,0E0,0E0,0E0,0E0,0E0,0E0,0E0,0E0,0E0,0E0],"parents":[2147483647,0,0,1,1,2,2,3,3,4,4,5,5,6,6,7,7,8,8,9,9,10,10,11,11,12,12,14,14,15,15,16,16,17,17,20,20,21,21,22,22,23,23,27,27,28,28,29,29,30,30,31,31,33,33,34,34,35,35,41,41,45,45],"right_children":[2,4,6,8,10,12,14,16,18,20,22,24,26,-1,28,30,32,34,-1,-1,36,38,40,42,-1,-1,-1,44,46,48,50,52,-1,54,56,58,-1,-1,-1,-1,-1,60,-1,-1,-1,62,-1,-1,-1,-1,-1,-1,-1,-1,-1,-1,-1,-1,-1,-1,-1,-1,-1],"split_conditions":[5E-1,5E-1,1.46E5,5E-1,1.75E1,5E-1,2.0075E3,5E-1,2.0205E3,1.5E0,2.0125E3,3.25E2,2.007E3,-2.2149807E3,1.81E5,1.793E5,5E-1,5.2E0,-1.43312295E4,3.1126562E3,5E-1,2.565E2,1.32E4,1.21E5,-2.308863E3,2.411723E3,9.943602E3,2.0135E3,2.0085E3,5E-1,1.05E2,1.16E2,-8.285385E3,2.0105E3,5.75E0,2.01E3,-5.417766E2,-1.8699815E2,2.181041E3,2.89742E3,1.1305939E4,5.7764E4,8.819095E3,-1.5678799E3,-2.254131E2,3.24E2,1.3576875E3,6.120087E2,8.69099E3,-7.9740717E2,1.0764652E2,-1.326809E3,-3.0598196E3,5.3412274E2,-1.4146025E3,4.975243E3,-6.2161245E3,-2.1075089E2,1.0775057E3,6.848459E3,1.3667227E3,-1.5336621E2,3.7692102E2],"split_indices":[25,24,7,67,0,9,1,71,1,3,1,0,1,0,7,7,81,4,0,0,19,0,7,7,0,0,0,1,1,56,0,0,0,1,4,1,0,0,0,0,0,7,0,0,0,0,0,0,0,0,0,0,0,0,0,0,0,0,0,0,0,0,0],"split_type":[0,0,0,0,0,0,0,0,0,0,0,0,0,0,0,0,0,0,0,0,0,0,0,0,0,0,0,0,0,0,0,0,0,0,0,0,0,0,0,0,0,0,0,0,0,0,0,0,0,0,0,0,0,0,0,0,0,0,0,0,0,0,0],"sum_hessian":[3.958E3,3.911E3,4.7E1,3.891E3,2E1,3.2E1,1.5E1,3.607E3,2.84E2,1.2E1,8E0,2.5E1,7E0,4E0,1.1E1,3.578E3,2.9E1,2.83E2,1E0,5E0,7E0,2E0,6E0,2.2E1,3E0,1E0,6E0,4E0,7E0,2.556E3,1.022E3,2.8E1,1E0,2.63E2,2E1,6E0,1E0,1E0,1E0,1E0,5E0,1.8E1,4E0,3E0,1E0,2E0,5E0,2.548E3,8E0,2.54E2,7.68E2,7E0,2.1E1,5.5E1,2.08E2,1.7E1,3E0,1E0,5E0,6E0,1.2E1,1E0,1E0],"tree_param":{"num_deleted":"0","num_feature":"107","num_nodes":"63","size_leaf_vector":"0"}},{"base_weights":[8.6678815E2,-4.081275E2,1.6505182E3,-8.837015E2,3.1961235E3,-2.4278223E3,2.1208447E3,-5.0235495E2,-8.693203E3,7.729772E3,1.2928247E2,-5.2565776E3,-1.0486682E3,3.2084834E3,5.6215625E2,-3.5132947E2,-1.1630921E4,-1.2347498E4,-3.1585051E3,-3.1578357E3,1.3012539E4,1.4838112E3,-5.423991E3,-5.787245E3,1.912907E4,2.156246E3,-3.669033E3,3.7703188E3,-5.3715215E3,-7.25253E2,2.4952734E3,-1.3092292E3,9.547394E2,-1.5193578E4,1.0059337E4,-1.7122527E2,-1.3038394E4,-4.5596978E3,1.5935652E4,-2.9412936E2,-2.3105736E4,1.8004934E4,5.122939E3,-1.2730645E3,3.9087695E3,-1.3309776E2,-3.712499E4,-6.3762563E3,1.1848808E4,3.510823E3,-1.832274E4,-4.455541E3,2.7420806E3,4.5188086E3,-7.9911017E2,-1.9534047E4,-2.584987E3,-4.6589474E2,-1.0510536E4,9.289989E2,6.3719067E3,-1.5707195E3,6.3939116E3,1.097762E3,-1.8198688E4,-5.432877E3,-2.3055082E4,6.244746E2,1.4464531E4,1.3130596E3,-1.5698975E3,-1.3827547E4,-3.465562E3,-7.2250425E3,7.54669E3,-1.788689E4,2.3594912E3,-7.26333E3,-2.7395275E4,2.0273268E4,-1.2404707E3,1.4084067E4,-5.246596E3,-2.08931E3,1.5688383E4,-6.6101616E3,4.537134E3,-2.2987278E3,1.2183172E4,-7.1660938E3,-4.8521387E4,-6.84487E3,1.5322113E4,1.8991812E3,9.234326E3,-4.6903022E3,-3.6426246E4,-5.6444937E3,-2.0876458E3,-3.3324968E3,6.689339E3,4.8428047E3,-6.604498E3,-4.456148E2,-2.0564145E4,-8.930823E3,-4.1158594E4,-7.1631323E3,1.4443547E3,-5.760399E2,1.9111666E4,-6.6693243E2,-4.638144E4,1.0895146E3,-2.0242025E4,1.8574855E3,1.694272E4],"categories":[],"categories_nodes":[],"categories_segments":[],"categories_sizes":[],"default_left":[1,1,1,1,1,1,1,1,1,1,1,1,1,1,1,1,1,1,1,1,1,1,1,1,0,1,1,1,1,1,1,1,1,1,1,1,1,1,0,1,1,1,1,1,1,1,1,1,0,1,1,1,1,1,1,1,1,1,1,1,1,0,0,0,0,0,0,0,0,0,0,0,0,0,0,0,0,0,0,0,0,0,0,0,0,0,0,0,0,0,0,0,0,0,0,0,0,0,0,0,0,0,0,0,0,0,0,0,0,0,0,0,0,0,0,0,0],"id":12,"left_children":[1,3,5,7,9,11,13,15,17,19,21,23,25,27,29,31,33,35,37,39,41,43,45,47,-1,49,51,53,55,57,59,61,63,65,67,69,71,73,-1,75,77,79,81,83,85,87,89,91,-1,93,95,97,99,101,103,105,107,109,111,113,115,-1,-1,-1,-1,-1,-1,-1,-1,-1,-1,-1,-1,-1,-1,-1,-1,-1,-1,-1,-1,-1,-1,-1,-1,-1,-1,-1,-1,-1,-1,-1,-1,-1,-1,-1,-1,-1,-1,-1,-1,-1,-1,-1,-1,-1,-1,-1,-1,-1,-1,-1,-1,-1,-1,-1,-1],"loss_changes":[3.9564654E9,2.587669E9,4.708457E9,3.9654753E9,2.446101E9,9.854149E8,3.7261394E9,2.13376E9,1.2149765E9,4.124777E9,8.053875E8,1.18478E9,1.452375E9,6.262866E9,2.2540948E9,1.5726103E9,1.4665114E9,3.090309E8,7.68281E8,1.3642022E9,1.7983862E9,5.799126E8,3.5173174E9,9.273536E8,0E0,2.228076E9,4.9124506E8,4.1625375E9,3.1066537E9,1.3757174E9,2.1920983E9,1.4704078E9,1.4773243E9,1.0257513E9,1.156545E8,8.2894525E6,2.1648538E8,8.612175E8,0E0,1.0692633E9,4.88896E6,1.2911432E9,1.9323479E9,6.00411E8,3.3403827E8,5.3478298E8,6.7656166E8,9.183301E8,0E0,6.6505574E8,1.0631245E9,2.2751795E8,2.860494E8,3.7980713E9,1.1925741E9,2.6131886E9,1.2647363E9,1.1560435E9,4.912452E9,9.0220896E8,4.9315246E9,0E0,0E0,0E0,0E0,0E0,0E0,0E0,0E0,0E0,0E0,0E0,0E0,0E0,0E0,0E0,0E0,0E0,0E0,0E0,0E0,0E0,0E0,0E0,0E0,0E0,0E0,0E0,0E0,0E0,0E0,0E0,0E0,0E0,0E0,0E0,0E0,0E0,0E0,0E0,0E0,0E0,0E0,0E0,0E0,0E0,0E0,0E0,0E0,0E0,0E0,0E0,0E0,0E0,0E0,0E0,0E0],"parents":[2147483647,0,0,1,1,2,2,3,3,4,4,5,5,6,6,7,7,8,8,9,9,10,10,11,11,12,12,13,13,14,14,15,15,16,16,17,17,18,18,19,19,20,20,21,21,22,22,23,23,25,25,26,26,27,27,28,28,29,29,30,30,31,31,32,32,33,33,34,34,35,35,36,36,37,37,39,39,40,40,41,41,42,42,43,43,44,44,45,45,46,46,47,47,49,49,50,50,51,51,52,52,53,53,54,54,55,55,56,56,57,57,58,58,59,59,60,60],"right_children":[2,4,6,8,10,12,14,16,18,20,22,24,26,28,30,32,34,36,38,40,42,44,46,48,-1,50,52,54,56,58,60,62,64,66,68,70,72,74,-1,76,78,80,82,84,86,88,90,92,-1,94,96,98,100,102,104,106,108,110,112,114,116,-1,-1,-1,-1,-1,-1,-1,-1,-1,-1,-1,-1,-1,-1,-1,-1,-1,-1,-1,-1,-1,-1,-1,-1,-1,-1,-1,-1,-1,-1,-1,-1,-1,-1,-1,-1,-1,-1,-1,-1,-1,-1,-1,-1,-1,-1,-1,-1,-1,-1,-1,-1,-1,-1,-1,-1],"split_conditions":[5E-1,5.1E0,2.45E3,5E-1,1.175E5,1.35E2,1.595E5,5E-1,1.235E5,2.85905E4,5E-1,5E-1,2.095E2,5E-1,5E-1,2.0175E3,5E-1,2.0105E3,5E-1,5E-1,5E-1,2.925E2,5E-1,5E-1,5.738721E3,5E-1,5E-1,5E-1,2.39E4,5E-1,4.25E0,5E-1,5E-1,2.0155E3,2.9E2,2.63E2,2.0195E3,5E-1,4.780696E3,1.075E2,2.215E2,5E-1,2.0145E3,5E-1,1.225E5,2.995E2,2.095E2,5E-1,3.5546423E3,5E-1,2.0155E3,5E-1,2E0,5E-1,5E-1,5E-1,2.085E2,8.200001E0,2.015E3,3.33E2,2.0135E3,-4.7121585E2,1.9181736E3,3.293286E2,-5.4596064E3,-1.6298632E3,-6.916525E3,1.8734239E2,4.3393594E3,3.9391788E2,-4.7096927E2,-4.148264E3,-1.0396687E3,-2.167513E3,2.264007E3,-5.3660674E3,7.078474E2,-2.178999E3,-8.218583E3,6.0819805E3,-3.7214124E2,4.22522E3,-1.5739789E3,-6.26793E2,4.706515E3,-1.9830486E3,1.3611401E3,-6.8961835E2,3.6549517E3,-2.1498281E3,-1.4556417E4,-2.0534612E3,4.5966343E3,5.697544E2,2.7702979E3,-1.4070907E3,-1.0927874E4,-1.6933481E3,-6.2629376E2,-9.997491E2,2.0068018E3,1.4528414E3,-1.9813495E3,-1.3368445E2,-6.1692437E3,-2.679247E3,-1.2347579E4,-2.1489397E3,4.3330643E2,-1.7281198E2,5.7335E3,-2.0007974E2,-1.3914433E4,3.268544E2,-6.072608E3,5.5724567E2,5.0828164E3],"split_indices":[3,4,7,31,7,0,7,94,7,7,21,95,7,67,21,1,9,1,12,8,89,0,93,64,0,92,57,49,7,87,4,5,97,1,0,0,1,9,0,0,0,39,1,57,7,0,0,11,0,75,1,21,2,66,104,20,0,4,1,0,1,0,0,0,0,0,0,0,0,0,0,0,0,0,0,0,0,0,0,0,0,0,0,0,0,0,0,0,0,0,0,0,0,0,0,0,0,0,0,0,0,0,0,0,0,0,0,0,0,0,0,0,0,0,0,0,0],"split_type":[0,0,0,0,0,0,0,0,0,0,0,0,0,0,0,0,0,0,0,0,0,0,0,0,0,0,0,0,0,0,0,0,0,0,0,0,0,0,0,0,0,0,0,0,0,0,0,0,0,0,0,0,0,0,0,0,0,0,0,0,0,0,0,0,0,0,0,0,0,0,0,0,0,0,0,0,0,0,0,0,0,0,0,0,0,0,0,0,0,0,0,0,0,0,0,0,0,0,0,0,0,0,0,0,0,0,0,0,0,0,0,0,0,0,0,0,0],"sum_hessian":[3.958E3,1.507E3,2.451E3,1.332E3,1.75E2,2.53E2,2.198E3,1.271E3,6.1E1,7E1,1.05E2,8.2E1,1.71E2,1.294E3,9.04E2,1.255E3,1.6E1,3.6E1,2.5E1,2.3E1,4.7E1,8.5E1,2E1,8.1E1,1E0,7.7E1,9.4E1,1.215E3,7.9E1,5.43E2,3.61E2,7.24E2,5.31E2,1.4E1,2E0,2E0,3.4E1,2.4E1,1E0,2.1E1,2E0,2.8E1,1.9E1,4E1,4.5E1,1.8E1,2E0,7.9E1,2E0,7.3E1,4E0,8.4E1,1E1,1.044E3,1.71E2,1.2E1,6.7E1,5.3E2,1.3E1,2.58E2,1.03E2,7.01E2,2.3E1,5.28E2,3E0,7E0,7E0,1E0,1E0,1E0,1E0,3.1E1,3E0,2E1,4E0,2E0,1.9E1,1E0,1E0,2.5E1,3E0,1E1,9E0,3.9E1,1E0,2E0,4.3E1,1.6E1,2E0,1E0,1E0,7.8E1,1E0,5.8E1,1.5E1,3E0,1E0,5.5E1,2.9E1,4E0,6E0,1.015E3,2.9E1,1.69E2,2E0,9E0,3E0,3.1E1,3.6E1,5.28E2,2E0,1.1E1,2E0,2.57E2,1E0,7.3E1,3E1],"tree_param":{"num_deleted":"0","num_feature":"107","num_nodes":"117","size_leaf_vector":"0"}},{"base_weights":[5.9266394E2,6.5967596E2,-1.2005094E4,6.1056647E2,1.6679871E4,-1.7705822E4,9.778404E3,9.6420105E2,-1.4490642E3,1.0042695E4,3.3243832E4,-1.9553705E4,-2.564466E3,-4.5515625E1,1.2245763E4,1.225551E3,-2.8750654E3,-1.8582395E3,3.7975513E3,1.11377705E4,9.350781E1,-1.0096868E4,-2.3272438E4,-7.7828906E2,-3.0684102E3,4.6569705E2,2.7952632E3,-2.2865986E3,-1.4651125E4,-5.7804805E3,-1.0836515E3,1.4073731E4,1.6939178E3,4.6263164E3,1.3622445E4,-1.1086378E4,-2.5746582E3,-2.4350994E4,-6.782711E3,-1.8388884E3,9.2165814E2,5.752549E3,1.5444862E3,-2.0213153E3,-2.8202207E4,-4.740388E3,-2.8332133E4,-1.1047944E4,-2.61927E2,9.5110504E1,-2.8721956E3,9.929714E2,1.9107441E4,-5.613061E3,3.0535293E3],"categories":[],"categories_nodes":[],"categories_segments":[],"categories_sizes":[],"default_left":[1,1,1,1,1,1,1,1,1,1,0,1,1,0,0,1,1,1,1,1,0,1,1,0,0,1,1,1,1,1,1,1,1,0,0,0,0,0,0,0,0,0,0,0,0,0,0,0,0,0,0,0,0,0,0],"id":13,"left_children":[1,3,5,7,9,11,13,15,17,19,-1,21,23,-1,-1,25,27,29,31,33,-1,35,37,-1,-1,39,41,43,45,47,49,51,53,-1,-1,-1,-1,-1,-1,-1,-1,-1,-1,-1,-1,-1,-1,-1,-1,-1,-1,-1,-1,-1,-1],"loss_changes":[3.3501102E9,3.088798E9,2.780953E9,2.862382E9,9.853975E8,4.255058E8,1.2175306E8,3.3678968E9,1.2436051E9,1.0790963E8,0E0,2.9253274E8,3.1229E5,0E0,0E0,3.7439396E9,1.4494797E9,1.6191306E9,8.840876E8,8.25879E7,0E0,1.611616E7,1.2685824E7,0E0,0E0,2.2262415E9,3.7787935E9,1.3523656E9,1.2215832E9,2.555159E9,9.447771E8,4.419401E8,3.7478714E8,0E0,0E0,0E0,0E0,0E0,0E0,0E0,0E0,0E0,0E0,0E0,0E0,0E0,0E0,0E0,0E0,0E0,0E0,0E0,0E0,0E0,0E0],"parents":[2147483647,0,0,1,1,2,2,3,3,4,4,5,5,6,6,7,7,8,8,9,9,11,11,12,12,15,15,16,16,17,17,18,18,19,19,21,21,22,22,25,25,26,26,27,27,28,28,29,29,30,30,31,31,32,32],"right_children":[2,4,6,8,10,12,14,16,18,20,-1,22,24,-1,-1,26,28,30,32,34,-1,36,38,-1,-1,40,42,44,46,48,50,52,54,-1,-1,-1,-1,-1,-1,-1,-1,-1,-1,-1,-1,-1,-1,-1,-1,-1,-1,-1,-1,-1,-1],"split_conditions":[5E-1,5E-1,2.635E2,5E-1,2.0135E3,5E-1,2.0195E3,5E-1,3.055E2,5E-1,9.97315E3,9.4275E3,8.3E1,-1.3654688E1,3.673729E3,2.0165E3,3.55E0,2.75E4,1.8E0,2.01E3,2.8052345E1,2.0205E3,5E-1,-2.3348672E2,-9.205231E2,5E-1,4.2314E4,5E-1,2.0145E3,5E-1,1.260045E5,2.0175E3,2.014E3,1.387895E3,4.0867336E3,-3.3259136E3,-7.723975E2,-7.3052983E3,-2.0348134E3,-5.5166656E2,2.7649747E2,1.7257648E3,4.633459E2,-6.063946E2,-8.460662E3,-1.4221165E3,-8.499641E3,-3.3143835E3,-7.85781E1,2.8533152E1,-8.616587E2,2.9789142E2,5.7322324E3,-1.6839183E3,9.1605884E2],"split_indices":[60,70,0,49,1,89,1,55,0,84,0,7,0,0,0,1,4,7,4,1,0,1,13,0,0,6,7,87,1,100,7,1,1,0,0,0,0,0,0,0,0,0,0,0,0,0,0,0,0,0,0,0,0,0,0],"split_type":[0,0,0,0,0,0,0,0,0,0,0,0,0,0,0,0,0,0,0,0,0,0,0,0,0,0,0,0,0,0,0,0,0,0,0,0,0,0,0,0,0,0,0,0,0,0,0,0,0,0,0,0,0,0,0],"sum_hessian":[3.958E3,3.938E3,2E1,3.927E3,1.1E1,1.6E1,4E0,3.352E3,5.75E2,9E0,2E0,1.4E1,2E0,1E0,3E0,3.139E3,2.13E2,5.34E2,4.1E1,8E0,1E0,5E0,9E0,1E0,1E0,2.116E3,1.023E3,2.04E2,9E0,8.7E1,4.47E2,6E0,3.5E1,3E0,5E0,4E0,1E0,8E0,1E0,3.49E2,1.767E3,3.03E2,7.2E2,2.03E2,1E0,6E0,3E0,4.4E1,4.3E1,2.7E2,1.77E2,2E0,4E0,5E0,3E1],"tree_param":{"num_deleted":"0","num_feature":"107","num_nodes":"55","size_leaf_vector":"0"}},{"base_weights":[4.1196124E2,2.5321926E1,2.0314552E3,-1.0055615E3,9.720869E2,-1.0214331E3,3.0741296E3,-1.1011782E3,1.2307035E4,1.2014964E4,7.898019E2,-2.7281091E3,1.0418901E3,5.117978E3,1.2756499E3,-1.1474336E3,2.2686506E4,7.8749445E2,2.5972984E4,7.19646E2,1.7622643E4,6.89337E2,1.893084E4,-1.1017876E4,-2.4652766E3,1.3148213E4,4.6669037E2,1.0387283E4,3.3622961E3,1.8565879E3,-8.64116E3,-1.2248824E3,1.0662098E4,3.396745E1,2.6543281E3,-3.2231187E3,1.0993804E4,1.118322E3,2.2258281E4,-1.26156456E2,2.9496565E3,2.468617E4,5.565134E3,-2.629103E3,7.28634E3,9.796429E1,1.0635457E4,-3.5178909E3,1.1341132E4,2.8815725E3,2.631754E4,1.1079291E2,4.8982036E3,-4.3482207E3,-3.8664098E4,-1.1288802E3,-1.0717854E4,1.4230111E4,-2.4066394E3,-5.251922E2,1.4148828E3,1.3886914E2,-5.2680854E3,5.590616E3,-3.726746E3,2.3900758E4,4.5304297E2,-3.485584E2,1.23873125E4,5.073843E3,-7.7316546E0,-2.927184E3,2.7274163E3,5.5620154E2,-7.2534243E3,2.3317715E3,1.3621414E4,-4.7750703E3,7.5541406E2,-1.3787207E3,1.2481096E4,3.526078E3,-6.5614717E3,-1.5385841E2,2.4270992E4,9.392444E3,2.1002065E3,-6.1144806E2,-9.065292E3],"categories":[],"categories_nodes":[],"categories_segments":[],"categories_sizes":[],"default_left":[1,1,1,1,1,1,1,1,1,1,1,1,1,1,1,1,0,1,0,1,1,1,1,0,1,0,1,1,1,1,1,1,1,1,0,1,0,1,1,1,1,0,0,1,0,1,1,1,1,1,0,1,1,1,0,0,0,0,0,0,0,0,0,0,0,0,0,0,0,0,0,0,0,0,0,0,0,0,0,0,0,0,0,0,0,0,0,0,0],"id":14,"left_children":[1,3,5,7,9,11,13,15,17,19,21,23,25,27,29,31,-1,33,-1,35,37,39,41,-1,43,-1,45,47,49,51,53,55,57,59,-1,61,-1,63,65,67,69,-1,-1,71,-1,73,75,77,79,81,-1,83,85,87,-1,-1,-1,-1,-1,-1,-1,-1,-1,-1,-1,-1,-1,-1,-1,-1,-1,-1,-1,-1,-1,-1,-1,-1,-1,-1,-1,-1,-1,-1,-1,-1,-1,-1,-1],"loss_changes":[2.478916E9,3.1212636E9,2.4318979E9,1.9623721E9,3.3461002E9,6.895201E8,2.0850125E9,1.699599E9,1.7112265E9,1.697512E9,2.9777336E9,2.0597165E8,6.136202E8,2.425901E9,1.7674028E9,1.402391E9,0E0,9.756807E6,0E0,4.405202E8,1.3522534E9,3.0104412E9,5.549348E8,0E0,1.8690176E8,0E0,3.214142E8,9.1528294E8,2.1422246E9,1.5287483E9,2.0229531E9,1.3640348E9,5.005412E8,5.3759985E6,0E0,5.573279E7,0E0,1.29177656E8,4.905764E8,3.3467246E9,2.7201638E9,0E0,0E0,1.7403802E8,0E0,2.870035E8,4.262131E7,3.0468716E7,9.162194E8,1.2281827E9,0E0,1.1802356E9,1.3006356E9,2.7648304E8,0E0,0E0,0E0,0E0,0E0,0E0,0E0,0E0,0E0,0E0,0E0,0E0,0E0,0E0,0E0,0E0,0E0,0E0,0E0,0E0,0E0,0E0,0E0,0E0,0E0,0E0,0E0,0E0,0E0,0E0,0E0,0E0,0E0,0E0,0E0],"parents":[2147483647,0,0,1,1,2,2,3,3,4,4,5,5,6,6,7,7,8,8,9,9,10,10,11,11,12,12,13,13,14,14,15,15,17,17,19,19,20,20,21,21,22,22,24,24,26,26,27,27,28,28,29,29,30,30,31,31,32,32,33,33,35,35,37,37,38,38,39,39,40,40,43,43,45,45,46,46,47,47,48,48,49,49,51,51,52,52,53,53],"right_children":[2,4,6,8,10,12,14,16,18,20,22,24,26,28,30,32,-1,34,-1,36,38,40,42,-1,44,-1,46,48,50,52,54,56,58,60,-1,62,-1,64,66,68,70,-1,-1,72,-1,74,76,78,80,82,-1,84,86,88,-1,-1,-1,-1,-1,-1,-1,-1,-1,-1,-1,-1,-1,-1,-1,-1,-1,-1,-1,-1,-1,-1,-1,-1,-1,-1,-1,-1,-1,-1,-1,-1,-1,-1,-1],"split_conditions":[5E-1,5E-1,1.9E0,5E-1,1.05E0,2.0175E3,1.195E5,5E-1,2.0165E3,1.335E2,5E-1,1.835E2,2.5E0,9.1E1,5.6499996E0,5E-1,6.805952E3,3.25E0,7.7918955E3,2.0165E3,2.0105E3,3.75E0,1.925E5,-3.305363E3,5E-1,3.944464E3,5E-1,1.375E4,5E-1,3.9E0,2.017E3,5E-1,5.15E0,5E-1,7.9629846E2,4.9E1,3.2981414E3,2.0055E3,5E-1,5E-1,1.835E5,7.405851E3,1.6695402E3,5E-1,2.185902E3,5E-1,1.65E2,6.05E1,2.5E1,5E-1,7.895262E3,5E-1,2.01E2,5.85E0,-1.15992295E4,-3.386641E2,-3.2153562E3,4.2690337E3,-7.219918E2,-1.5755766E2,4.2446487E2,4.1660744E1,-1.5804257E3,1.6771849E3,-1.1180239E3,7.1702275E3,1.359129E2,-1.0456753E2,3.7161938E3,1.5221528E3,-2.3194964E0,-8.781553E2,8.182249E2,1.6686047E2,-2.1760273E3,6.995315E2,4.0864243E3,-1.4325211E3,2.2662422E2,-4.1361624E2,3.7443289E3,1.0578234E3,-1.9684415E3,-4.6157524E1,7.281298E3,2.8177334E3,6.30062E2,-1.8343442E2,-2.7195876E3],"split_indices":[89,100,4,24,4,1,7,62,1,0,28,7,2,0,4,56,0,4,0,1,1,4,7,0,13,0,8,7,56,4,1,77,4,84,0,0,0,1,9,5,7,0,0,9,0,29,0,0,0,31,0,25,0,4,0,0,0,0,0,0,0,0,0,0,0,0,0,0,0,0,0,0,0,0,0,0,0,0,0,0,0,0,0,0,0,0,0,0,0],"split_type":[0,0,0,0,0,0,0,0,0,0,0,0,0,0,0,0,0,0,0,0,0,0,0,0,0,0,0,0,0,0,0,0,0,0,0,0,0,0,0,0,0,0,0,0,0,0,0,0,0,0,0,0,0,0,0,0,0,0,0,0,0,0,0,0,0,0,0,0,0,0,0,0,0,0,0,0,0,0,0,0,0,0,0,0,0,0,0,0,0],"sum_hessian":[3.958E3,3.196E3,7.62E2,1.53E3,1.666E3,1.94E2,5.68E2,1.52E3,1E1,2.6E1,1.64E3,1.06E2,8.8E1,2.65E2,3.03E2,1.518E3,2E0,6E0,4E0,9E0,1.7E1,1.632E3,8E0,2E0,1.04E2,3E0,8.5E1,6.5E1,2E2,2.87E2,1.6E1,1.509E3,9E0,5E0,1E0,7E0,2E0,4E0,1.3E1,1.2E3,4.32E2,5E0,3E0,1.03E2,1E0,8.3E1,2E0,4E0,6.1E1,1.97E2,3E0,1.83E2,1.04E2,1.5E1,1E0,1.495E3,1.4E1,7E0,2E0,4E0,1E0,3E0,4E0,2E0,2E0,1.2E1,1E0,1.18E3,2E1,2.51E2,1.81E2,9.8E1,5E0,7.9E1,4E0,1E0,1E0,3E0,1E0,5E0,5.6E1,1.85E2,1.2E1,1.82E2,1E0,3.9E1,6.5E1,9E0,6E0],"tree_param":{"num_deleted":"0","num_feature":"107","num_nodes":"89","size_leaf_vector":"0"}},{"base_weights":[3.010826E2,2.1591135E2,7.2362686E3,2.803459E2,-8.1312627E3,-2.0485955E3,1.11197E4,3.8085852E2,-4.8984844E3,-6.7382705E3,-2.4264016E4,-2.9388481E3,5.2074707E3,1.9735152E4,7.228732E3,4.5526514E2,-6.3053184E3,-3.6461516E3,-1.3537983E4,-7.0811006E3,1.4304824E3,-4.3701035E3,-3.021569E2,2.0901371E4,4.619592E3,1.1806537E3,1.3682429E4,5.0656354E2,-8.724398E3,-2.7231995E3,-1.9137178E4,-1.4712644E4,-2.6948838E3,-5.6565845E3,-1.8711785E4,-3.042256E3,-8.282513E3,-5.2332173E3,1.2674033E3,1.01916406E3,-1.2176084E3,8.85586E3,-7.759676E3,2.6139328E4,1.0504531E3,5.902683E2,-4.8304106E3,-1.3041877E4,7.6999053E3,2.0764459E4,-4.8400674E3,-2.7004504E4,-7.4424155E3,7.3749424E3,-2.9808635E3,-6.414254E3,-1.3129531E3,-5.6064966E3,-1.2530931E3,2.0445898E2,-8.717084E3,-5.730751E3,-8.7524023E2,-2.2637173E3,2.0541367E4,-1.1484731E4,1.0353086E3,-6.9675234E3,5.6511484E3],"categories":[],"categories_nodes":[],"categories_segments":[],"categories_sizes":[],"default_left":[1,1,1,1,1,1,1,1,1,1,0,1,0,1,1,1,1,1,1,1,0,1,1,0,0,1,1,1,1,1,1,0,1,1,0,1,1,1,0,0,0,1,1,0,1,0,0,0,0,0,0,0,0,0,0,0,0,0,0,0,0,0,0,0,0,0,0,0,0],"id":15,"left_children":[1,3,5,7,9,11,13,15,17,19,-1,21,-1,23,25,27,29,31,33,35,-1,37,39,-1,-1,41,43,45,47,49,51,-1,53,55,-1,57,59,61,-1,-1,-1,63,65,-1,67,-1,-1,-1,-1,-1,-1,-1,-1,-1,-1,-1,-1,-1,-1,-1,-1,-1,-1,-1,-1,-1,-1,-1,-1],"loss_changes":[2.3369344E9,2.1063345E9,1.7535224E9,2.0231141E9,5.1068646E8,1.1219995E8,9.971031E8,1.8983299E9,7.512836E8,9.134362E7,0E0,5.151244E7,0E0,7.97248E7,9.5965734E8,1.7792492E9,1.878426E9,6.5514624E8,2.611465E8,1.1066739E8,0E0,5.0424896E7,8.498574E6,0E0,0E0,1.02938285E9,1.8608049E9,1.6776424E9,1.589564E9,1.7909908E9,6.270797E8,0E0,2.0052928E8,8.033568E6,0E0,2.9677296E7,7.923443E7,1.2330144E7,0E0,0E0,0E0,1.086003E9,2.4122288E8,0E0,2.975924E8,0E0,0E0,0E0,0E0,0E0,0E0,0E0,0E0,0E0,0E0,0E0,0E0,0E0,0E0,0E0,0E0,0E0,0E0,0E0,0E0,0E0,0E0,0E0,0E0],"parents":[2147483647,0,0,1,1,2,2,3,3,4,4,5,5,6,6,7,7,8,8,9,9,11,11,13,13,14,14,15,15,16,16,17,17,18,18,19,19,21,21,22,22,25,25,26,26,27,27,28,28,29,29,30,30,32,32,33,33,35,35,36,36,37,37,41,41,42,42,44,44],"right_children":[2,4,6,8,10,12,14,16,18,20,-1,22,-1,24,26,28,30,32,34,36,-1,38,40,-1,-1,42,44,46,48,50,52,-1,54,56,-1,58,60,62,-1,-1,-1,64,66,-1,68,-1,-1,-1,-1,-1,-1,-1,-1,-1,-1,-1,-1,-1,-1,-1,-1,-1,-1,-1,-1,-1,-1,-1,-1],"split_conditions":[5E-1,5E-1,2.0095E3,5E-1,5E-1,5.8E0,6.39275E4,5E-1,2.0185E3,3.025E2,-7.279205E3,2.0075E3,1.5622413E3,5E-1,3.115E2,5E-1,2.0175E3,1.965E2,5.984E3,1.16E2,4.2914474E2,5E-1,5E-1,6.2704116E3,1.3858776E3,3.105E2,5E-1,5E-1,2.635E2,5.6739E4,7.2902E4,-4.4137935E3,2.0065E3,1.12E2,-5.6135356E3,1.55E0,2.5E0,5E-1,3.80221E2,3.0574924E2,-3.6528253E2,3.095E2,1.35E5,7.841799E3,1.01E5,1.770805E2,-1.4491233E3,-3.9125632E3,2.3099717E3,6.229338E3,-1.4520203E3,-8.1013516E3,-2.2327249E3,2.212483E3,-8.942591E2,-1.9242762E3,-3.9388596E2,-1.6819491E3,-3.7592795E2,6.1337696E1,-2.6151252E3,-1.7192253E3,-2.6257208E2,-6.7911523E2,6.1624106E3,-3.4454197E3,3.105926E2,-2.090257E3,1.6953446E3],"split_indices":[25,71,1,66,81,4,7,94,1,0,0,1,0,11,0,60,1,0,7,0,0,12,9,0,0,0,93,103,0,7,7,0,1,0,0,4,2,16,0,0,0,0,7,0,7,0,0,0,0,0,0,0,0,0,0,0,0,0,0,0,0,0,0,0,0,0,0,0,0],"split_type":[0,0,0,0,0,0,0,0,0,0,0,0,0,0,0,0,0,0,0,0,0,0,0,0,0,0,0,0,0,0,0,0,0,0,0,0,0,0,0,0,0,0,0,0,0,0,0,0,0,0,0,0,0,0,0,0,0,0,0,0,0,0,0,0,0,0,0,0,0],"sum_hessian":[3.958E3,3.911E3,4.7E1,3.882E3,2.9E1,1.4E1,3.3E1,3.809E3,7.3E1,2.8E1,1E0,1.3E1,1E0,9E0,2.4E1,3.768E3,4.1E1,6.5E1,8E0,2.7E1,1E0,8E0,5E0,8E0,1E0,1.3E1,1.1E1,3.748E3,2E1,3.3E1,8E0,4E0,6.1E1,4E0,4E0,7E0,2E1,7E0,1E0,2E0,3E0,7E0,6E0,5E0,6E0,3.691E3,5.7E1,1.6E1,4E0,2E0,3.1E1,4E0,4E0,1E0,6E1,3E0,1E0,2E0,5E0,1E0,1.9E1,6E0,1E0,4E0,3E0,4E0,2E0,2E0,4E0],"tree_param":{"num_deleted":"0","num_feature":"107","num_nodes":"69","size_leaf_vector":"0"}},{"base_weights":[2.0733101E2,9.298399E1,4.1705234E3,-2.3569756E1,4.092384E3,-9.9001666E2,5.457286E3,-4.5583942E2,1.2891193E3,3.4546938E3,1.4463613E4,-3.218568E3,7.676482E3,1.0152333E4,4.124002E3,-6.849232E2,3.5902805E3,7.202406E2,5.986543E3,1.8456785E4,3.1298506E3,1.7227986E4,5.956578E3,-4.286723E3,8.0041133E3,4.4397885E2,1.2350157E4,1.147999E4,2.30362E3,3.5127356E2,7.0390845E3,-8.057004E2,6.209014E3,4.3808467E3,-1.3298633E4,1.1748961E4,4.884568E2,-3.1678916E3,8.609177E3,1.3728248E3,5.363954E3,-2.5054312E3,-9.894889E3,1.5894126E3,-9.2344434E2,1.2679374E4,2.0562058E3,5.5674414E2,2.7003308E3,-2.5861497E3,2.779611E3,3.684429E3,1.0209519E4,-7.101422E2,-9.031882E3,1.0794966E4,-8.7602E2,4.738654E3,-2.3571697E4,-2.1091904E4,4.12303E3,-1.0624453E2,1.5404889E4,9.1655707E2,-4.364261E3,-5.2510547E3,2.133085E4,1.0702865E4,-3.7980127E3,3.1378394E3,-8.352606E2,7.4548804E2,7.886367E3,-3.4859744E3,5.611088E3,1.9114479E4,9.186665E3,2.996043E3,8.8265625E1,-7.0028228E3,3.4618801E3,4.8082046E3,-5.5225176E3,5.379972E3,-2.817304E3,4.1901147E3,1.3873278E4],"categories":[],"categories_nodes":[],"categories_segments":[],"categories_sizes":[],"default_left":[1,1,1,1,1,1,1,1,1,1,1,1,1,1,1,1,1,1,1,0,1,0,0,1,0,1,0,1,1,1,1,1,1,1,1,1,1,1,1,1,1,1,0,0,0,1,1,0,0,1,1,1,1,0,0,0,0,0,0,0,0,0,0,0,0,0,0,0,0,0,0,0,0,0,0,0,0,0,0,0,0,0,0,0,0,0,0],"id":16,"left_children":[1,3,5,7,9,11,13,15,17,19,21,23,25,27,29,31,33,35,37,-1,39,-1,-1,41,-1,43,-1,45,47,49,51,53,55,57,59,61,63,65,67,69,71,73,-1,-1,-1,75,77,-1,-1,79,81,83,85,-1,-1,-1,-1,-1,-1,-1,-1,-1,-1,-1,-1,-1,-1,-1,-1,-1,-1,-1,-1,-1,-1,-1,-1,-1,-1,-1,-1,-1,-1,-1,-1,-1,-1],"loss_changes":[1.7937489E9,1.7942888E9,7.424863E8,2.1233644E9,6.709184E8,4.689232E8,5.1525683E8,2.6116838E9,2.472877E9,4.4905946E8,3.847987E7,2.6207517E8,1.6352867E8,1.7154202E8,7.783721E8,2.2239626E9,2.074382E9,2.1108603E9,2.428146E9,0E0,3.9695014E8,0E0,0E0,1.5502509E8,0E0,6.1666125E6,0E0,1.5477235E8,1.268624E6,2.3544627E8,3.8781235E8,2.0531122E9,1.5040713E9,1.5619333E9,1.0373646E9,7.3844685E8,1.6908895E9,1.2858116E9,2.066839E9,2.3256181E8,5.1835635E8,1.389391E8,0E0,0E0,0E0,1.3906509E8,5.284182E6,0E0,0E0,4.2492547E8,3.29703E8,2.4666038E8,3.8294234E8,0E0,0E0,0E0,0E0,0E0,0E0,0E0,0E0,0E0,0E0,0E0,0E0,0E0,0E0,0E0,0E0,0E0,0E0,0E0,0E0,0E0,0E0,0E0,0E0,0E0,0E0,0E0,0E0,0E0,0E0,0E0,0E0,0E0,0E0],"parents":[2147483647,0,0,1,1,2,2,3,3,4,4,5,5,6,6,7,7,8,8,9,9,10,10,11,11,12,12,13,13,14,14,15,15,16,16,17,17,18,18,20,20,23,23,25,25,27,27,28,28,29,29,30,30,31,31,32,32,33,33,34,34,35,35,36,36,37,37,38,38,39,39,40,40,41,41,45,45,46,46,49,49,50,50,51,51,52,52],"right_children":[2,4,6,8,10,12,14,16,18,20,22,24,26,28,30,32,34,36,38,-1,40,-1,-1,42,-1,44,-1,46,48,50,52,54,56,58,60,62,64,66,68,70,72,74,-1,-1,-1,76,78,-1,-1,80,82,84,86,-1,-1,-1,-1,-1,-1,-1,-1,-1,-1,-1,-1,-1,-1,-1,-1,-1,-1,-1,-1,-1,-1,-1,-1,-1,-1,-1,-1,-1,-1,-1,-1,-1,-1],"split_conditions":[5E-1,5E-1,2.0055E3,5E-1,2.0185E3,3.5E0,7.2E4,3.355E2,4.3E0,1.55E0,3E0,5E-1,2.74E2,2.145E2,5.25E1,6.1E0,2.0195E3,1.05E0,2.005E3,5.5370356E3,2.5E0,5.168396E3,1.7869735E3,5E-1,2.4012341E3,2.415E2,3.7050474E3,5E-1,2.0085E3,2.0155E3,2.0125E3,5E-1,1.72E2,5E-1,3.475E2,2.0095E3,3.08E2,5E-1,5.75E0,9.95E4,1.405E2,5E-1,-2.9684668E3,4.768238E2,-2.7703333E2,1.5E0,2.017E3,1.6702325E2,8.100993E2,1.24E5,5E-1,5E-1,1.19E5,-2.1304268E2,-2.7095647E3,3.23849E3,-2.6280603E2,1.4215962E3,-7.0715093E3,-6.327572E3,1.2369089E3,-3.187336E1,4.621467E3,2.7496713E2,-1.3092784E3,-1.5753165E3,6.3992554E3,3.2108596E3,-1.1394038E3,9.4135187E2,-2.505782E2,2.2364642E2,2.3659102E3,-1.0457924E3,1.6833264E3,5.7343438E3,2.7559995E3,8.988129E2,2.6479689E1,-2.100847E3,1.0385641E3,1.4424614E3,-1.6567554E3,1.6139917E3,-8.451912E2,1.2570344E3,4.161984E3],"split_indices":[64,57,1,75,1,4,7,0,4,4,4,14,0,0,0,4,1,4,1,0,2,0,0,20,0,0,0,9,1,1,1,54,0,94,0,1,0,98,4,7,0,93,0,0,0,3,1,0,0,7,21,93,7,0,0,0,0,0,0,0,0,0,0,0,0,0,0,0,0,0,0,0,0,0,0,0,0,0,0,0,0,0,0,0,0,0,0],"split_type":[0,0,0,0,0,0,0,0,0,0,0,0,0,0,0,0,0,0,0,0,0,0,0,0,0,0,0,0,0,0,0,0,0,0,0,0,0,0,0,0,0,0,0,0,0,0,0,0,0,0,0,0,0,0,0,0,0,0,0,0,0,0,0,0,0,0,0,0,0,0,0,0,0,0,0,0,0,0,0,0,0,0,0,0,0,0,0],"sum_hessian":[3.958E3,3.848E3,1.1E2,3.74E3,1.08E2,2.2E1,8.8E1,2.814E3,9.26E2,1.03E2,5E0,1.8E1,4E0,1.8E1,7E1,2.664E3,1.5E2,8.27E2,9.9E1,1E0,1.02E2,3E0,2E0,1.7E1,1E0,2E0,2E0,1.5E1,3E0,3.1E1,3.9E1,2.619E3,4.5E1,1.44E2,6E0,1.6E1,8.11E2,2.2E1,7.7E1,5.8E1,4.4E1,1.4E1,3E0,1E0,1E0,1.3E1,2E0,1E0,2E0,1.4E1,1.7E1,2E1,1.9E1,2.59E3,2.9E1,2.7E1,1.8E1,1.43E2,1E0,4E0,2E0,4E0,1.2E1,7.46E2,6.5E1,2.1E1,1E0,6.6E1,1.1E1,3.2E1,2.6E1,1.6E1,2.8E1,1.3E1,1E0,3E0,1E1,1E0,1E0,8E0,6E0,1.4E1,3E0,1.6E1,4E0,8E0,1.1E1],"tree_param":{"num_deleted":"0","num_feature":"107","num_nodes":"87","size_leaf_vector":"0"}},{"base_weights":[1.539248E2,1.05820435E2,9.169602E3,1.9188913E1,4.8937944E3,2.5217942E3,1.7753145E4,2.43801E2,-2.0443374E3,6.5608096E3,-1.398117E4,4.90001E3,4.229082E2,3.5465925E3,2.1305504E4,1.9516458E2,1.2309062E4,-1.087656E3,-4.2951895E3,7.468428E3,-2.5763385E4,3.7510405E3,-3.2963727E4,3.0198086E3,7.150508E3,1.7681328E3,-1.3643496E3,2.7535742E2,5.0445312E3,1.4624603E2,1.1479079E4,-4.3219204E3,1.7237686E4,-1.4795072E3,6.712464E3,-3.6411277E3,-2.7063742E4,1.828254E4,5.1272495E3,1.0322656E4,-1.8803834E3,-8.128828E2,4.181202E3,-8.0204297E2,2.6111875E3,4.0017188E2,-2.085914E3,-2.0549604E3,3.6785855E2,2.1799749E3,2.5064406E4,1.9375693E4,-2.0711953E3,6.693328E3,-1.8044012E3,9.137321E3,-1.0277954E3,-3.2737786E3,-1.0774175E4,2.2117139E4,6.8455664E2,9.5360925E2,9.930528E3],"categories":[],"categories_nodes":[],"categories_segments":[],"categories_sizes":[],"default_left":[1,1,1,1,1,1,1,1,1,1,1,1,1,1,0,1,1,1,1,1,0,1,0,1,0,1,1,0,0,1,1,0,1,1,1,1,0,1,1,0,0,0,0,0,0,0,0,0,0,0,0,0,0,0,0,0,0,0,0,0,0,0,0],"id":17,"left_children":[1,3,5,7,9,11,13,15,17,19,21,23,25,27,-1,29,31,33,35,37,-1,39,-1,41,-1,43,45,-1,-1,47,49,-1,51,53,55,57,-1,59,61,-1,-1,-1,-1,-1,-1,-1,-1,-1,-1,-1,-1,-1,-1,-1,-1,-1,-1,-1,-1,-1,-1,-1,-1],"loss_changes":[1.7160221E9,1.6337619E9,1.1535269E9,1.7942161E9,2.294268E9,6.28186E7,3.7863885E8,2.046155E9,8.136008E8,2.0993843E9,2.1432646E9,3.795168E6,2.1646458E7,1.3311284E7,0E0,1.9181523E9,1.2220499E9,8.2906944E8,1.5842577E9,1.5265979E9,0E0,1.6744077E8,0E0,2.5655148E7,0E0,1.2928278E7,5.9275875E6,0E0,0E0,1.6905468E9,1.8403308E9,0E0,4.9423846E8,6.918358E8,2.5338867E8,2.555831E8,0E0,7.271534E8,1.0730766E9,0E0,0E0,0E0,0E0,0E0,0E0,0E0,0E0,0E0,0E0,0E0,0E0,0E0,0E0,0E0,0E0,0E0,0E0,0E0,0E0,0E0,0E0,0E0,0E0],"parents":[2147483647,0,0,1,1,2,2,3,3,4,4,5,5,6,6,7,7,8,8,9,9,10,10,11,11,12,12,13,13,15,15,16,16,17,17,18,18,19,19,21,21,23,23,25,25,26,26,29,29,30,30,32,32,33,33,34,34,35,35,37,37,38,38],"right_children":[2,4,6,8,10,12,14,16,18,20,22,24,26,28,-1,30,32,34,36,38,-1,40,-1,42,-1,44,46,-1,-1,48,50,-1,52,54,56,58,-1,60,62,-1,-1,-1,-1,-1,-1,-1,-1,-1,-1,-1,-1,-1,-1,-1,-1,-1,-1,-1,-1,-1,-1,-1,-1],"split_conditions":[5E-1,5E-1,1.75E1,2.985E5,5E-1,1.5E0,2.0125E3,5E-1,2.48E2,5E-1,5.3E4,2.018E3,2.015E3,2.565E2,6.3916514E3,5E-1,2.008E3,2.42E2,2.0165E3,3.8E4,-7.7290156E3,7.45E1,-9.889118E3,7.0139E4,2.1451523E3,2.01E3,1.5E1,8.260723E1,1.5133594E3,7.975E2,2.014E3,-1.2965762E3,6.85E0,1.05E0,5.185E5,5E-1,-8.119123E3,2.08E2,5E-1,3.096797E3,-5.6411505E2,-2.4386485E2,1.2543607E3,-2.406129E2,7.8335626E2,1.2005157E2,-6.2577423E2,-6.1648816E2,1.1035757E2,6.539925E2,7.5193223E3,5.812708E3,-6.2135864E2,2.0079985E3,-5.413204E2,2.7411965E3,-3.0833862E2,-9.821336E2,-3.2322527E3,6.635142E3,2.05367E2,2.860828E2,2.9791587E3],"split_indices":[24,5,0,7,93,3,1,56,0,90,7,1,1,0,0,28,1,0,1,7,0,0,0,7,0,1,0,0,0,7,1,0,4,4,7,92,0,0,3,0,0,0,0,0,0,0,0,0,0,0,0,0,0,0,0,0,0,0,0,0,0,0,0],"split_type":[0,0,0,0,0,0,0,0,0,0,0,0,0,0,0,0,0,0,0,0,0,0,0,0,0,0,0,0,0,0,0,0,0,0,0,0,0,0,0,0,0,0,0,0,0,0,0,0,0,0,0,0,0,0,0,0,0,0,0,0,0,0,0],"sum_hessian":[3.958E3,3.938E3,2E1,3.869E3,6.9E1,1.2E1,8E0,3.49E3,3.79E2,6.4E1,5E0,5E0,7E0,2E0,6E0,3.477E3,1.3E1,2.67E2,1.12E2,6.3E1,1E0,3E0,2E0,4E0,1E0,4E0,3E0,1E0,1E0,3.463E3,1.4E1,3E0,1E1,2.55E2,1.2E1,1.1E2,2E0,1E1,5.3E1,1E0,2E0,1E0,3E0,1E0,3E0,1E0,2E0,3.16E2,3.147E3,9E0,5E0,9E0,1E0,9E0,2.46E2,9E0,3E0,1.06E2,4E0,8E0,2E0,2.9E1,2.4E1],"tree_param":{"num_deleted":"0","num_feature":"107","num_nodes":"63","size_leaf_vector":"0"}},{"base_weights":[1.1010241E2,1.45669E2,-1.1600486E4,1.1059497E2,1.1640738E4,5.179963E3,-1.7769521E4,8.827384E1,1.764628E4,6.3458115E3,2.5410248E4,6.791539E3,1.7261719E2,2.4500708E1,5.2494014E3,2.2976416E3,7.752507E3,7.062392E1,-6.8257383E3,8.437383E3,-1.6538984E3,8.974054E3,2.1161328E2,1.08472145E2,-8.015999E3,-1.8103577E3,-1.170186E4,9.11953E3,-6.695672E3,-4.5864106E3,9.600799E1],"categories":[],"categories_nodes":[],"categories_segments":[],"categories_sizes":[],"default_left":[1,1,1,1,1,1,0,1,0,1,0,0,0,1,1,0,1,1,1,1,1,0,0,0,0,0,0,0,0,0,0],"id":18,"left_children":[1,3,5,7,9,11,-1,13,-1,15,-1,-1,-1,17,19,-1,21,23,25,27,29,-1,-1,-1,-1,-1,-1,-1,-1,-1,-1],"loss_changes":[1.6506368E9,1.5904613E9,1.3342756E9,1.5394486E9,7.136539E8,3.1106544E7,0E0,1.2943839E9,0E0,3.913296E7,0E0,0E0,0E0,1.2282833E9,1.07031885E9,0E0,6.2581824E7,1.182584E9,6.1466125E8,4.017198E8,8.254628E7,0E0,0E0,0E0,0E0,0E0,0E0,0E0,0E0,0E0,0E0],"parents":[2147483647,0,0,1,1,2,2,3,3,4,4,5,5,7,7,9,9,13,13,14,14,16,16,17,17,18,18,19,19,20,20],"right_children":[2,4,6,8,10,12,-1,14,-1,16,-1,-1,-1,18,20,-1,22,24,26,28,30,-1,-1,-1,-1,-1,-1,-1,-1,-1,-1],"split_conditions":[5E-1,5E-1,2.54085E4,5E-1,2.0135E3,9.75E1,-5.3308564E3,5E-1,5.293884E3,2.01E3,7.6230747E3,2.0374618E3,5.178516E1,5E-1,1.46E5,6.892925E2,5E-1,5E-1,5E-1,3.42E2,1.81E5,2.6922163E3,6.3483986E1,3.2541645E1,-2.4047998E3,-5.431073E2,-3.5105583E3,2.7358591E3,-2.0087017E3,-1.3759232E3,2.8802397E1],"split_indices":[43,70,7,62,1,0,0,25,0,1,0,0,0,17,7,0,84,77,100,0,7,0,0,0,0,0,0,0,0,0,0],"split_type":[0,0,0,0,0,0,0,0,0,0,0,0,0,0,0,0,0,0,0,0,0,0,0,0,0,0,0,0,0,0,0],"sum_hessian":[3.958E3,3.947E3,1.1E1,3.936E3,1.1E1,3E0,8E0,3.932E3,4E0,9E0,2E0,2E0,1E0,3.885E3,4.7E1,3E0,6E0,3.86E3,2.5E1,3.2E1,1.5E1,5E0,1E0,3.843E3,1.7E1,1.3E1,1.2E1,3.1E1,1E0,5E0,1E1],"tree_param":{"num_deleted":"0","num_feature":"107","num_nodes":"31","size_leaf_vector":"0"}},{"base_weights":[7.860634E1,2.8257883E2,-1.3362783E3,-5.4963135E2,8.009683E2,-1.0469626E3,-1.8962156E4,-8.5732086E2,4.6063687E3,3.8176145E3,3.128111E2,-8.479924E2,-1.702222E4,1.0986792E4,-3.077627E4,-1.1832344E3,3.0897307E3,6.12635E3,-7.2208696E3,5.77986E2,8.270719E3,3.5907574E2,-1.6710377E4,-6.4720825E2,-1.683632E4,-2.8458389E4,3.9000754E3,6.155629E3,-3.9393773E4,-1.400871E3,3.1323328E3,-1.1159176E3,2.2699268E4,8.0388457E3,-2.436234E3,-9.396998E3,5.09408E3,-4.4969012E2,1.5753734E4,1.37033125E4,2.5294822E3,9.644315E1,2.9785337E3,-5.6275786E3,-2.222305E4,-1.4062899E3,3.0188145E3,-2.3777078E4,-1.9698685E3,-3.887804E4,1.4002812E3,-1.6207617E3,7.470875E3,-1.5449242E3,5.7606978E3,9.2465205E3,1.6021503E3,-3.4270334E3,5.1327983E3,-4.104896E3,2.6546816E4,5.450096E3,1.1403623E4,-8.9101935E2,-7.289943E3,-1.1035612E4,1.0366484E3,-7.3139984E2,2.2593645E4,-1.604414E2,1.7361195E4,1.5682237E4,-2.10944E3,3.746227E3,-2.2648578E4,-4.558895E2,1.7322207E3,9.807367E2,7.6337637E3,-9.1513354E2,-8.436188E3,3.8585063E3,-3.2917953E4,-7.3584785E3,-2.679712E4,-5.1594414E3,2.2046387E3],"categories":[],"categories_nodes":[],"categories_segments":[],"categories_sizes":[],"default_left":[1,1,1,1,1,1,1,1,1,1,1,1,1,0,1,1,1,1,1,1,1,1,1,1,1,1,1,0,0,1,1,1,1,1,1,1,0,1,1,1,1,1,1,0,0,1,1,1,1,0,0,0,0,0,0,0,0,0,0,0,0,0,0,0,0,0,0,0,0,0,0,0,0,0,0,0,0,0,0,0,0,0,0,0,0,0,0],"id":19,"left_children":[1,3,5,7,9,11,13,15,17,19,21,23,25,-1,27,29,31,33,35,37,39,41,43,45,47,49,51,-1,-1,53,55,57,59,61,63,65,-1,67,69,71,73,75,77,-1,-1,79,81,83,85,-1,-1,-1,-1,-1,-1,-1,-1,-1,-1,-1,-1,-1,-1,-1,-1,-1,-1,-1,-1,-1,-1,-1,-1,-1,-1,-1,-1,-1,-1,-1,-1,-1,-1,-1,-1,-1,-1],"loss_changes":[1.1429353E9,1.4935469E9,2.5247688E9,2.1123374E9,3.1398566E9,1.5494372E9,3.1686948E9,1.6180844E9,1.3925267E9,4.2798618E9,1.4527703E9,1.552472E9,1.5466152E9,0E0,2.152059E9,1.0938898E9,7.9425285E9,1.11677E9,2.8905936E8,2.7051497E9,3.864063E9,1.2607343E9,1.8041715E8,1.3455602E9,5.7226906E8,1.2989079E9,7.124991E7,0E0,0E0,1.1488694E9,5.091118E8,1.1729107E9,1.862187E9,4.169303E8,9.10048E7,1.4821376E8,0E0,1.0746447E9,2.8418125E8,2.0357857E9,1.9842339E9,1.506913E9,1.5456472E9,0E0,0E0,1.3733916E9,2.631606E9,1.15328E6,5.131939E7,0E0,0E0,0E0,0E0,0E0,0E0,0E0,0E0,0E0,0E0,0E0,0E0,0E0,0E0,0E0,0E0,0E0,0E0,0E0,0E0,0E0,0E0,0E0,0E0,0E0,0E0,0E0,0E0,0E0,0E0,0E0,0E0,0E0,0E0,0E0,0E0,0E0,0E0],"parents":[2147483647,0,0,1,1,2,2,3,3,4,4,5,5,6,6,7,7,8,8,9,9,10,10,11,11,12,12,14,14,15,15,16,16,17,17,18,18,19,19,20,20,21,21,22,22,23,23,24,24,25,25,26,26,29,29,30,30,31,31,32,32,33,33,34,34,35,35,37,37,38,38,39,39,40,40,41,41,42,42,45,45,46,46,47,47,48,48],"right_children":[2,4,6,8,10,12,14,16,18,20,22,24,26,-1,28,30,32,34,36,38,40,42,44,46,48,50,52,-1,-1,54,56,58,60,62,64,66,-1,68,70,72,74,76,78,-1,-1,80,82,84,86,-1,-1,-1,-1,-1,-1,-1,-1,-1,-1,-1,-1,-1,-1,-1,-1,-1,-1,-1,-1,-1,-1,-1,-1,-1,-1,-1,-1,-1,-1,-1,-1,-1,-1,-1,-1,-1,-1],"split_conditions":[5E-1,1.315E2,2.0205E3,5E-1,1.68E2,5E-1,1.85E0,5E-1,7.1E1,2.0155E3,5E-1,5E-1,1.87E2,3.2960378E3,4.15E1,5E-1,2.0195E3,2.24E5,2.0185E3,1.52E2,3.6999998E0,5E-1,2.014E3,5.1E0,2.565E2,5E-1,2.7E2,1.8466887E3,-1.1818133E4,5E-1,5.06005E4,6.45E1,2.5E0,2.0165E3,5E-1,1.46E5,1.5282241E3,8.15E0,3.8112E4,1.555E2,5E-1,5E-1,4.55E0,-1.6882737E3,-6.6669155E3,5E-1,5E-1,1.135E2,3.17E2,-1.1663412E4,4.2008438E2,-4.8622855E2,2.2412627E3,-4.6347726E2,1.7282094E3,2.7739563E3,4.806451E2,-1.0281101E3,1.5398396E3,-1.2314689E3,7.9640454E3,1.6350289E3,3.4210872E3,-2.6730582E2,-2.186983E3,-3.3106838E3,3.1099454E2,-2.1941997E2,6.7780938E3,-4.8132423E1,5.208359E3,4.7046714E3,-6.3283203E2,1.1238682E3,-6.7945737E3,-1.3676686E2,5.1966626E2,2.94221E2,2.2901292E3,-2.7454007E2,-2.5308567E3,1.157552E3,-9.875387E3,-2.2075437E3,-8.039136E3,-1.5478325E3,6.613916E2],"split_indices":[20,0,1,47,0,54,4,63,0,1,35,94,0,0,0,64,1,7,1,0,4,8,1,4,0,100,0,0,0,51,7,0,2,1,8,7,0,4,7,0,87,75,4,0,0,31,35,0,0,0,0,0,0,0,0,0,0,0,0,0,0,0,0,0,0,0,0,0,0,0,0,0,0,0,0,0,0,0,0,0,0,0,0,0,0,0,0],"split_type":[0,0,0,0,0,0,0,0,0,0,0,0,0,0,0,0,0,0,0,0,0,0,0,0,0,0,0,0,0,0,0,0,0,0,0,0,0,0,0,0,0,0,0,0,0,0,0,0,0,0,0,0,0,0,0,0,0,0,0,0,0,0,0,0,0,0,0,0,0,0,0,0,0,0,0,0,0,0,0,0,0,0,0,0,0,0,0],"sum_hessian":[3.958E3,3.46E3,4.98E2,1.328E3,2.132E3,4.91E2,7E0,1.254E3,7.4E1,2.96E2,1.836E3,4.86E2,5E0,2E0,5E0,1.159E3,9.5E1,6.6E1,8E0,1.72E2,1.24E2,1.832E3,4E0,4.81E2,5E0,3E0,2E0,1E0,4E0,1.104E3,5.5E1,7.9E1,1.6E1,5.4E1,1.2E1,7E0,1E0,1.62E2,1E1,6.3E1,6.1E1,1.666E3,1.66E2,2E0,2E0,3.99E2,8.2E1,3E0,2E0,2E0,1E0,1E0,1E0,1.083E3,2.1E1,1E1,4.5E1,5.8E1,2.1E1,2E0,1.4E1,3.2E1,2.2E1,1E1,2E0,6E0,1E0,1.61E2,1E0,1E0,9E0,5.6E1,7E0,5.9E1,2E0,1.246E3,4.2E2,1.17E2,4.9E1,3.74E2,2.5E1,8.1E1,1E0,1E0,2E0,1E0,1E0],"tree_param":{"num_deleted":"0","num_feature":"107","num_nodes":"87","size_leaf_vector":"0"}},{"base_weights":[4.9670654E1,9.4433914E1,-6.238144E3,5.600198E1,7.249258E3,-4.4227744E3,-2.7626562E4,2.7443737E1,9.335144E3,2.4086323E3,1.3435799E4,-1.8914171E3,-1.2967289E4,-5.9303497E1,3.1038765E3,5.086788E3,2.0384615E4,4.315061E3,6.777317E2,2.86167E2,1.5043732E4,-7.8848887E3,1.4311954E3,-2.0570012E4,-4.0234243E3,-4.8014124E2,5.9348737E2,8.493778E3,2.2681052E3,5.596819E3,2.482539E2,2.660714E3,6.2933984E3,1.2891465E3,-1.8010859E3,1.5952847E4,4.339963E3,-1.6209507E4,-2.4084316E3,-2.3830598E3,9.536318E3,-9.9111426E2,-4.7038228E3,-1.691194E3,9.2480095E1,7.086828E2,-2.3879826E4,1.1816097E4,-2.766042E3,-4.062961E3,2.745939E3,1.2957435E3,6.6405913E3,-4.7548047E2,3.5636328E3,-4.6626855E2,1.6594271E3,4.340125E3,1.7164947E4,-4.224996E3,3.3371953E3,1.9030482E3,-7.906999E3,1.4904336E3,1.1175181E4],"categories":[],"categories_nodes":[],"categories_segments":[],"categories_sizes":[],"default_left":[1,1,1,1,1,1,0,1,1,1,1,1,1,1,1,1,0,1,1,0,1,1,1,0,1,1,1,1,1,1,0,1,0,1,0,1,0,0,1,1,1,0,0,0,0,0,0,0,0,0,0,0,0,0,0,0,0,0,0,0,0,0,0,0,0],"id":20,"left_children":[1,3,5,7,9,11,-1,13,15,17,19,21,23,25,27,29,-1,31,33,-1,35,37,39,-1,41,43,45,47,49,51,-1,53,-1,55,-1,57,-1,-1,59,61,63,-1,-1,-1,-1,-1,-1,-1,-1,-1,-1,-1,-1,-1,-1,-1,-1,-1,-1,-1,-1,-1,-1,-1,-1],"loss_changes":[1.1149015E9,1.0807907E9,9.649948E8,1.036408E9,5.965194E8,5.5946234E8,0E0,1.0412519E9,4.596128E8,3.997345E7,1.859886E8,4.4939245E8,3.252244E8,1.04284365E9,4.627408E8,2.3288608E7,0E0,2.8922E6,1.444655E7,0E0,8.612864E6,3.256758E8,4.8645072E8,0E0,3.590692E6,1.6006958E9,4.2119155E9,5.564056E8,2.9552506E8,3.1799584E7,0E0,1.5853084E7,0E0,5.323711E6,0E0,2.4032384E7,0E0,0E0,7.672345E7,2.754856E8,4.9274624E7,0E0,0E0,0E0,0E0,0E0,0E0,0E0,0E0,0E0,0E0,0E0,0E0,0E0,0E0,0E0,0E0,0E0,0E0,0E0,0E0,0E0,0E0,0E0,0E0],"parents":[2147483647,0,0,1,1,2,2,3,3,4,4,5,5,7,7,8,8,9,9,10,10,11,11,12,12,13,13,14,14,15,15,17,17,18,18,20,20,21,21,22,22,24,24,25,25,26,26,27,27,28,28,29,29,31,31,33,33,35,35,38,38,39,39,40,40],"right_children":[2,4,6,8,10,12,-1,14,16,18,20,22,24,26,28,30,-1,32,34,-1,36,38,40,-1,42,44,46,48,50,52,-1,54,-1,56,-1,58,-1,-1,60,62,64,-1,-1,-1,-1,-1,-1,-1,-1,-1,-1,-1,-1,-1,-1,-1,-1,-1,-1,-1,-1,-1,-1,-1,-1],"split_conditions":[5E-1,5E-1,5E-1,5E-1,1.75E1,5E-1,-8.287969E3,5E-1,2.0135E3,1.5E0,4.8695E3,5E-1,1.335E2,2.0165E3,2.75E0,5E-1,6.115385E3,2.018E3,5E-1,8.58501E1,2.565E2,1.52E5,5E-1,-6.171004E3,2.012E3,1.315E2,5E-1,2.065E5,3.15E0,2.0085E3,7.447617E1,7.0139E4,1.8880197E3,2.01E3,-5.403258E2,1.32E4,1.3019889E3,-4.862852E3,2.315E2,1.205E5,2E0,-2.973343E2,-1.4111469E3,-5.0735822E2,2.774403E1,2.1260484E2,-7.163948E3,3.544829E3,-8.298126E2,-1.2188883E3,8.2378174E2,3.8872308E2,1.9921775E3,-1.4264415E2,1.0690898E3,-1.3988057E2,4.9782816E2,1.3020376E3,5.1494844E3,-1.2674989E3,1.0011586E3,5.709145E2,-2.3720999E3,4.471301E2,3.3525544E3],"split_indices":[91,24,77,70,0,20,0,57,1,3,7,6,0,1,4,84,0,1,19,0,0,7,75,0,1,0,97,7,4,1,0,7,0,1,0,7,0,0,0,7,2,0,0,0,0,0,0,0,0,0,0,0,0,0,0,0,0,0,0,0,0,0,0,0,0],"split_type":[0,0,0,0,0,0,0,0,0,0,0,0,0,0,0,0,0,0,0,0,0,0,0,0,0,0,0,0,0,0,0,0,0,0,0,0,0,0,0,0,0,0,0,0,0,0,0,0,0,0,0,0,0,0,0,0,0,0,0,0,0,0,0,0,0],"sum_hessian":[3.958E3,3.931E3,2.7E1,3.911E3,2E1,2.6E1,1E0,3.9E3,1.1E1,1.2E1,8E0,2.1E1,5E0,3.794E3,1.06E2,9E0,2E0,5E0,7E0,1E0,7E0,7E0,1.4E1,2E0,3E0,2.307E3,1.487E3,1.3E1,9.3E1,8E0,1E0,4E0,1E0,6E0,1E0,6E0,1E0,2E0,5E0,1E1,4E0,1E0,2E0,7.4E2,1.567E3,1.481E3,6E0,1E1,3E0,6E0,8.7E1,2E0,6E0,1E0,3E0,1E0,5E0,1E0,5E0,4E0,1E0,6E0,4E0,1E0,3E0],"tree_param":{"num_deleted":"0","num_feature":"107","num_nodes":"65","size_leaf_vector":"0"}},{"base_weights":[3.3414803E1,7.753358E1,-5.747259E3,6.618527E1,2.2332514E4,-4.534136E3,-2.0463908E4,1.3252751E2,-3.3916772E3,-1.835939E3,-5.3092017E3,2.695688E2,-1.5855214E3,-2.6722537E3,-1.5313527E4,-3.7912117E3,-5.523128E2,-5.6775503E3,1.2130605E3,-1.239615E3,4.5386615E2,-1.3842336E3,-2.9375615E4,-8.684349E3,-1.544298E3,1.3112207E3,-2.1292184E4,-1.3036113E3,1.4923926E2,-6.356309E3,-1.203749E3,-8.1783575E2,-1.2478855E4,3.9336118E3,2.7329355E2,-2.0145698E3,6.6059077E3,-2.1652434E3,-9.892456E3,-1.902469E3,4.0352573E3,-8.0273047E2,7.3413934E2,1.709414E2,-6.7503203E3,-2.3295715E3,1.0868594E3],"categories":[],"categories_nodes":[],"categories_segments":[],"categories_sizes":[],"default_left":[1,1,1,1,0,1,0,1,1,1,1,1,1,1,1,0,1,1,0,1,1,1,0,1,1,0,0,0,1,1,1,0,0,0,0,0,0,0,0,0,0,0,0,0,0,0,0],"id":21,"left_children":[1,3,5,7,-1,9,-1,11,13,15,17,19,21,23,25,-1,27,29,-1,31,33,35,-1,37,39,-1,-1,-1,41,43,45,-1,-1,-1,-1,-1,-1,-1,-1,-1,-1,-1,-1,-1,-1,-1,-1],"loss_changes":[1.01013414E9,9.910682E8,4.428069E8,9.017712E8,0E0,5.0899776E7,0E0,9.082979E8,5.937661E8,1.7984776E7,5.974144E7,9.940738E8,1.5535716E9,4.6806656E8,4.2549344E8,0E0,3.3570002E6,5.611789E7,0E0,1.8338403E9,1.999581E9,1.4436667E9,0E0,6.5214016E7,1.295815E8,0E0,0E0,0E0,2.8165445E6,4.7446464E7,1.2847191E7,0E0,0E0,0E0,0E0,0E0,0E0,0E0,0E0,0E0,0E0,0E0,0E0,0E0,0E0,0E0,0E0],"parents":[2147483647,0,0,1,1,2,2,3,3,5,5,7,7,8,8,9,9,10,10,11,11,12,12,13,13,14,14,16,16,17,17,19,19,20,20,21,21,23,23,24,24,28,28,29,29,30,30],"right_children":[2,4,6,8,-1,10,-1,12,14,16,18,20,22,24,26,-1,28,30,-1,32,34,36,-1,38,40,-1,-1,-1,42,44,46,-1,-1,-1,-1,-1,-1,-1,-1,-1,-1,-1,-1,-1,-1,-1,-1],"split_conditions":[5E-1,5E-1,5E-1,5E-1,6.6997544E3,1.16E2,-6.139173E3,5E-1,5E-1,1.55E0,3.025E2,7.9275E3,2.0205E3,1.965E2,2.0155E3,-1.1373635E3,8.4E4,1.5E0,3.6391818E2,6.375E3,2.215E4,5.2E0,-8.812685E3,1.6E3,5E-1,3.9336624E2,-6.3876553E3,-3.910834E2,2.017E3,2.5E0,5E-1,-2.4535074E2,-3.7436567E3,1.1800836E3,8.198807E1,-6.04371E2,1.9817723E3,-6.4957306E2,-2.9677368E3,-5.707407E2,1.2105773E3,-2.4081915E2,2.202418E2,5.1282425E1,-2.0250962E3,-6.9887146E2,3.2605783E2],"split_indices":[71,27,81,66,0,0,0,67,98,4,0,